22 512
L -0.09563638 -0.110306144 -0.038300995 -0.051920533 0.029831449 -0.008702757 -0.057507623 0.047982935 0.011775022 -0.08988868 0.033862967 -0.11341857 0.11214416 0.08965284 0.21792081 -0.028252408 0.09039242 -0.068491906 -0.07519316 -0.0102991 -0.15773045 0.07783918 0.01322686 0.12693615 0.1863776 -0.035173584 0.0127552105 0.020090824 -0.042048972 0.16432731 0.0886618 -0.14360072 -0.022574443 -0.050388023 0.0621509 0.07575771 -0.17250341 -0.048997287 0.049973782 0.08955727 -0.0034768484 -0.02509391 0.07790987 0.054915566 0.02400331 -0.08604082 0.077498965 -0.012999051 0.0150524005 0.039292775 0.02061665 0.05493512 0.053924978 0.03279681 0.03383795 0.093010835 -0.013055069 -0.025420878 0.03301411 -0.07989751 -0.033528637 0.006305168 0.0070685646 0.0052235527 -0.047417574 -0.023500063 0.07125808 0.01492439 -0.07769048 0.07010531 -0.016536923 0.011649115 0.097942874 0.002636202 0.04151346 0.14586478 0.05397038 -0.023147067 -0.061098162 0.09962693 -0.031766303 -0.0071029826 -0.06437516 0.036269005 0.02958741 -0.013480722 0.0109686265 -0.010505978 -0.1101109 0.12668277 -0.053531345 0.062478643 0.038264655 0.016615773 -0.04166388 -0.0073805824 -0.16314414 -0.06513846 0.034019634 -0.05358499 0.10285117 -0.0472289 0.0517417 0.022793459 0.018946802 0.08013739 0.16983552 -0.08434147 0.07938011 -0.021682113 0.027895644 0.040947106 0.072143875 -0.006864871 -0.0357576 -0.014790211 -0.051965833 -0.10107214 -0.07708749 0.02769139 0.06400063 -0.004520215 0.022202779 -0.059300154 0.020332318 0.03438755 0.015098506 0.0043021184 0.030280188 -0.00038760426 -0.034001745 -0.1420094 -0.019313844 0.048024867 0.04007655 -0.036363233 -0.041208766 0.082824305 0.04178103 0.059990086 0.035374627 0.062456697 0.039651126 0.0057812002 -0.013507074 -0.034126136 0.012172642 -0.007794433 0.10546247 -0.038051527 -0.06383228 0.011897109 0.02149745 0.04329993 -0.07601802 0.029108968 0.024228068 0.05920148 0.0037104345 -0.005388784 -0.02902554 0.07547797 -0.04295244 -0.039085485 -0.048765097 -0.036445238 0.044069096 -0.02109375 -0.14084092 -0.049697306 0.05572868 0.08762828 0.0077237645 -0.081141956 0.06261415 -0.10423305 0.047539946 -0.018352006 -0.05222691 0.077083915 0.023177998 0.008036505 0.11536564 -0.075229265 0.05129036 -0.0085578 -0.049048796 0.008871369 -0.02104226 -0.041338332 -0.08354122 0.058847796 0.020374632 -0.04811751 0.033642028 0.04971183 0.06307087 -0.02060276 -0.04283502 -0.015284873 -0.037649035 0.08782258 -0.058058575 -0.014797039 0.0011936176 0.051918652 0.070307314 0.019609617 -0.010882644 -0.026773613 -0.056068566 -0.105188206 0.00532633 -0.024346475 -0.013808598 -0.017383 0.12224391 -0.06519241 0.029893087 -0.08981756 0.079394706 0.048031818 0.028088039 0.0030132474 -0.1344595 -0.14534149 -0.059747223 -0.04483088 0.02497237 0.07397937 0.041933622 0.10101562 -0.053149555 -0.0003171052 0.13636054 -0.0668778 -0.10576875 -0.017045662 0.022428326 -0.04044161 0.0753102 0.11542614 -0.02022025 0.04204652 -0.019658659 -0.025828894 -0.09571203 -0.02872914 -0.06669406 0.018774267 -0.015585118 0.040859763 0.052133378 0.067875534 -0.012954409 0.04198873 -0.039209843 -0.026120676 -0.02724883 0.048885003 -0.0029140972 0.12056673 -0.01539966 0.021770967 0.07762546 -0.05786294 -0.07048627 -0.013113627 -0.039259553 0.02087168 0.06956283 0.10383835 0.037372652 -0.015019021 -0.029710948 -0.026691187 0.06517314 -0.037503432 0.031266194 -0.014909689 -0.003993938 -0.0055448934 0.009382864 0.010633132 0.028366735 0.031205373 -0.031905383 0.040559243 0.10062512 0.07856447 -0.0713675 -0.067022994 -0.026783748 -0.034284916 0.09152569 -0.019662237 -0.010680226 0.05119106 -0.045636747 0.030873148 -0.052076545 -0.13147876 -0.0028538827 -0.005821388 0.023315338 -0.034931436 -0.011906221 0.076564305 0.00048876705 -0.054699503 0.023737103 0.011480592 0.023551004 -0.03683932 -0.006762051 0.031121915 0.068232425 -0.020520767 0.009135887 0.049607158 -0.08354513 0.011769847 -0.012881599 -0.07732523 0.016728992 -0.030443715 0.13060126 0.037623465 -0.008818355 0.0049002566 0.035872344 -0.036312696 -0.0013279465 -0.0024459418 -0.052573536 0.029223103 0.075108476 -0.029778011 -0.015616259 0.041482262 -0.018673038 -0.07901358 -0.026935572 0.006783503 0.051090624 0.09847108 0.022611812 -0.025598854 -0.05479703 0.012964387 -0.07947683 -0.010722771 0.066160746 0.027762944 -0.004248857 -0.033785976 0.052392054 0.022473976 0.026702456 0.00065254513 0.16103749 -0.06440116 0.045377135 -0.012228569 -0.055098407 -0.02140787 0.11209739 -0.07761068 -0.0073362645 -0.005711805 -0.10164736 -0.022017345 0.06611063 -0.15120459 0.082228854 0.0151855815 -0.16671698 -0.13608225 0.04693623 -0.04059094 -0.12732692 0.042038362 0.2208185 0.14708892 -0.06854551 0.13285014 -0.0018810482 -0.0015951986 -0.030702226 0.039386332 0.0042244205 0.12893209 -0.11432851 -0.04568311 -0.040444374 0.01968871 0.036454998 0.036911104 -0.07928335 0.041517835 0.055356964 0.072741754 -0.045352843 -0.08348696 -0.08657844 -0.1256089 -0.060466725 0.027553426 0.100674495 -0.09963028 -0.052097935 0.014819604 0.011481711 0.04429042 -0.0053111166 0.031600896 0.012531835 0.010378162 -0.006267262 -0.02811333 -0.12060152 -0.03678161 -0.08011716 -0.086547025 0.068092704 0.007807962 0.24073221 -0.18418774 -0.05969566 -0.14393777 0.008178141 0.028379897 0.0671258 -0.010872807 0.0075537474 -0.0485544 0.079563245 -0.05258371 -0.11409661 -0.18713343 -0.07465232 0.019035188 0.14870028 -0.090909444 0.010300218 0.005228382 0.0019387287 0.13443445 0.055683643 0.12065764 0.12975977 0.2154301 -0.016395608 0.11075725 -0.00806901 0.09222 -0.054868087 -0.0798978 0.0032562816 -0.018549057 -0.04592505 0.076048374 0.003771604 0.05369277 0.053385355 0.03999013 0.017004142 0.09899185 0.022771234 0.054348163 -0.021646097 -0.017431868 -0.059668895 0.015321721 -0.02660762 0.002768695 -0.062230255 0.00060937804 -0.040926084 -0.031134712 -0.05183481 0.023323394 -0.013245867 -0.07008556 0.01812474 -0.003918877 0.031045394 0.08570481 -0.0063386485 0.04995156 0.00610165 0.04928004 0.078143336 -0.03758142 0.03654379 -0.07081234 -0.049791604 -0.10276378 0.02709368 0.08985874 -0.012124093 0.061048407 0.011262334 0.051419105 -0.009283614 -0.022216495 0.041280903 0.027633378 -0.018741526 0.019952651 0.03798923 0.053600043
start 0.11953431 0.07287247 -0.006582557 0.3288455 -0.13799933 0.20140007 -0.011724913 0.24875793 0.10441754 -0.3561446 0.057278868 -0.4305473 -0.017577572 0.10547903 0.0016285197 0.081237935 0.07690105 0.025976952 -0.049530778 -0.040654037 0.077431105 -0.0699879 0.09457804 -0.14784957 0.016989965 -0.10795451 -0.16460675 -0.20060545 -0.06749519 0.13828525 -0.17499594 -0.04162802 0.11835536 -0.048035156 0.06362227 -0.06426563 0.080814704 0.3185168 0.05523017 -0.24886364 0.50878274 -0.013705433 0.074269086 -0.09453255 0.012326409 -0.2103325 0.36787787 -0.31471673 0.2404133 0.017570132 0.084113844 0.22940215 0.08060373 0.06692655 0.16073397 0.33811957 -0.26197407 0.051936276 0.08706 -0.16159163 0.051625874 0.13030408 0.119424894 -0.033493064 -0.15018083 -0.20240359 -0.2316881 0.012973953 -0.01839114 -0.084724195 0.101302296 -0.03948627 0.117877714 -0.029819837 -0.021144046 0.27080876 0.14147288 -0.22705404 -0.1517526 0.28745088 -0.15785757 -0.07712143 -0.203605 -0.09090521 -0.116245076 0.03235812 0.109613426 -0.068201736 -0.04092957 0.25293216 -0.2181941 -0.012259401 -0.11152199 0.14144887 -0.06447607 0.10038359 -0.20004444 -0.14419387 -0.19547455 -0.20170014 0.15721053 -0.27697468 0.0073865177 0.0641706 -0.007613198 0.22328186 0.35558155 0.018863754 0.0966157 0.00337875 0.038929857 0.13490854 0.099968955 -0.26862758 0.05749046 -0.3085267 -0.16714782 -0.06818908 -0.21730994 -0.024207423 -0.126448 -0.012628852 0.28868273 -0.3289668 -0.11593536 0.07706472 0.039357495 0.009158893 -0.059629753 -0.0752429 0.00401188 -0.16273421 -0.21927474 -0.013897676 0.05690652 0.0655597 -0.14154983 0.14064842 0.069514416 0.11821433 0.18763389 0.032598965 -0.074377395 0.044218 -0.009575215 -0.2671942 0.13459162 -0.079580516 -0.16325413 -0.11916221 0.091272764 0.17191707 0.04629304 -0.016242422 -0.11287672 0.47172046 0.0665584 -0.010609685 -0.049903117 -0.045836937 0.102808416 -0.069191456 0.13548565 -0.12857741 -0.09330039 -0.053822786 0.00179084 -0.15222622 -0.17319311 -0.031122908 0.09028115 0.061076812 -0.0014596693 -0.015851866 -0.074108966 -0.1483898 -0.014622656 0.021577116 -0.019213142 0.030269258 0.1188451 0.02050299 0.05831112 -0.14951426 -0.010350093 0.06952505 -0.06806478 -0.109695405 -0.0027533341 0.04252453 -0.26659206 0.08290216 -0.02688177 0.05518744 0.03397507 -0.032965366 -0.022675144 -0.0022692499 -0.09037746 0.020907395 0.17928033 0.107472 -0.11643291 0.03707238 0.09818927 0.19209544 -0.17513098 0.30570924 0.022251902 0.102849975 0.1680814 0.14366622 0.054950085 0.09994595 -0.076590136 0.2492572 0.0021220031 -0.016240202 0.104614064 -0.051922824 0.13322555 -0.10500534 0.1380792 0.06210012 -0.21762538 -0.23758432 -0.18653727 0.0067148865 0.13951704 0.058233034 -0.041118667 0.0042553563 -0.13599825 -0.073994346 0.05902963 0.08131174 -0.06620503 -0.10064342 -0.0014298306 -0.08997515 0.1101134 0.11566019 0.0035025917 0.080067426 -0.33728644 -0.022645347 -0.042989545 0.15644747 0.019461978 0.07883776 -0.13334073 0.07927506 0.1833025 0.048556186 -0.07185032 0.020853784 -0.030778373 -0.053048424 0.057946794 0.1536361 0.25859818 0.06489032 0.16592811 0.17025237 -0.0005977579 -0.1749694 -0.052744027 -0.3011208 -0.055687085 -0.114126496 0.06797765 0.09325366 -0.12999855 -0.047631685 0.035887416 -0.14192156 0.08466739 -0.002696183 0.14714304 0.22891088 -0.09392632 0.24714619 -0.15411445 0.020609818 0.19757801 0.09880239 0.1773598 0.28418392 -0.012773172 0.064051464 0.15723757 -0.18152028 0.091268554 -0.11494877 0.21588747 -0.018354597 0.0073441956 0.010025534 0.07045991 -0.0819472 -0.17666134 -0.16501553 -0.10633141 -0.14002156 0.1806449 0.06224817 0.08849674 0.13159843 0.04681531 0.031341057 0.063130826 -0.020514937 0.20960698 -0.22675312 -0.08992236 0.030488688 0.07441201 -0.021062123 0.032760307 0.09273124 -0.16680978 -0.21964094 0.11707982 -0.005206428 0.094620936 -0.0339915 0.3327219 0.11971072 0.043375313 0.017413937 0.05688368 0.026597705 0.09263251 0.071931556 -0.2487074 0.3069276 -0.04859947 -0.005612139 0.07289925 0.007808093 -0.05012177 -0.031705774 -0.10003203 0.024954438 -0.041478124 0.20260139 -0.11839037 -0.044577483 -0.06528609 0.14223787 0.04442293 -0.06921568 -0.12571833 0.04009149 -0.008037219 -0.12687291 -0.2180406 0.024372242 -0.12463111 -0.0029699 0.026290622 -0.06266412 0.08600214 -0.2099719 0.1641247 -0.08857013 -0.05313565 -0.13798422 -0.20083474 0.04651781 -0.033638515 0.18031374 0.07555971 -0.07211584 -0.03554151 0.29257396 -0.029589865 0.19255333 0.18557541 -0.1912631 -0.17334306 0.012713478 0.120768085 0.11882492 -0.20552436 -0.048175756 -0.103937104 -0.10030824 0.022008888 0.0367173 -0.17180935 0.0035641666 -0.035261173 0.13560595 -0.12652734 0.1443575 0.12450308 0.015935706 0.07173499 0.07885447 0.082421586 0.11090431 -0.10818695 -0.050680984 -0.17384486 -0.056555428 -0.03827047 0.2377187 0.11465018 0.11564112 -0.02174654 -0.08960786 0.025964813 0.21307082 0.07254136 0.13979355 -0.046940044 5.39051e-05 0.06882164 -0.067185484 -0.03793092 0.21263824 -0.15461144 -0.09371873 0.22283258 -0.15907861 0.15182574 -0.24536692 0.115340315 -0.21580102 0.121106826 -0.06480252 0.091253124 0.18323252 -0.11349267 0.0652717 -0.08411742 -0.11010768 -0.112035915 -0.21288146 -0.16370198 0.2845009 0.16762403 -0.049007244 0.049427416 -0.087420546 0.070372745 0.07544193 0.055514883 -0.12984769 0.34375322 0.24877547 -0.05577508 -0.0105403 -0.01940791 0.056739736 -0.27248892 -0.32952046 -0.25021517 -0.021538954 -0.06353202 0.23818965 0.25347877 0.3075395 0.4592087 -0.1267392 0.25670096 0.2466929 -0.07394906 0.21373074 -0.23567587 -0.17820685 -0.043683257 -0.07606143 0.27656025 -0.1152278 0.087692484 0.11368736 0.025204191 0.009842076 -0.45074555 0.17026807 -0.24340001 -0.21309325 -0.01365796 0.0041310336 -0.028343642 0.1158637 -0.059383355 0.30575845 -0.10590614 0.1983813 -0.23506653 -0.09575554 0.14867444 -0.25574294 0.1278241 0.076282516 -0.121046714 0.11252496 0.090710506 -0.17730558 -0.1304133 0.26297656 0.27276924 0.09728156 -0.05457005 0.089689955 -0.17546742 -0.1993407 0.052981205 -0.047750503
end 0.5124884 -0.022557849 0.2020282 0.42829308 -0.17050771 -0.23240507 -0.18800567 0.42186165 0.30111316 -0.5940609 0.018720562 -0.6381671 -0.040597845 -0.15155385 -0.4175984 0.3248287 -0.07684983 0.12578465 0.01563029 -0.19268851 0.15379258 -0.3423418 -0.047568634 -0.19185881 -0.53900766 -0.020145183 -0.23543052 -0.0050620125 -0.13777038 0.0026539022 -0.31778374 0.5158014 0.039904784 -0.044999506 -0.21312211 -0.3303343 0.18181299 0.2682957 0.024422418 -0.103157476 -0.007961335 -0.31921217 0.09444316 -0.20858714 0.1956472 -0.14549679 0.3797105 -0.24192424 0.1998474 -0.075483024 0.02471376 -0.05134018 0.04943283 0.1491287 -0.035233986 0.2663043 -0.16471119 -0.115808286 0.23030259 -0.09274569 0.10386623 -0.3420428 0.08446004 -0.052744262 -0.012728436 -0.3175442 -0.16874646 0.27412072 -0.29305837 -0.2999493 0.3328325 -0.36135796 0.29719505 0.13336736 0.040286902 0.30046654 0.103944935 -0.19097765 -0.16440937 0.17447405 0.13425212 -0.04072384 -0.095738664 0.10953263 0.052128162 -0.07426272 0.23496284 -0.011022533 0.08931408 -0.029862724 -0.011166013 -0.04950627 -0.00091437565 -0.16981697 -0.06569319 0.020451684 -0.30670157 -0.20640366 -0.031010896 0.17800693 0.16417378 -0.14638202 -0.019832434 -0.15177308 -0.15253083 0.22518735 0.41244963 -0.36390084 0.2086135 -0.14076063 -0.017450953 0.009324385 0.29713184 -0.14055382 0.022917239 -0.0442924 -0.061554566 -0.115702555 -0.11346257 0.1724716 -0.09948715 0.0050163786 0.1177259 0.010671226 0.18297905 0.015682321 -0.13505082 0.07971418 -0.12083546 0.08605627 0.10793508 -0.16977878 0.07568668 0.15499729 -0.04318592 -0.26951775 0.095789105 0.049071446 0.102798656 0.026738493 0.058627386 0.0881592 0.15210746 0.025133811 -0.021961674 0.080541074 -0.10456288 0.0028690165 0.18562207 -0.112829536 -0.18051076 -0.07521267 -0.10509682 0.19692436 -0.050268754 -0.09928898 -0.0393813 0.119007036 -0.10085981 -0.0922561 -0.18895946 0.0022771875 -0.1008747 0.08053133 -0.071936116 -0.03681154 0.040050477 -0.080588534 -0.27966842 -0.28711644 0.1124897 0.19747904 -0.077362955 -0.13625707 0.17077501 -0.024954459 0.08653404 -0.008600926 0.06298835 0.05146282 -0.18978779 0.118476 0.20110786 -0.041109245 -0.15008101 -0.2606982 -0.009751489 0.070786126 0.09039456 -0.078151464 -0.14095035 0.16884556 0.11540219 -0.08769142 -0.219314 0.054851737 0.065965936 -0.18127131 0.10538343 -0.060632687 -0.27377012 0.076884456 0.037109606 -0.0015855462 0.0030435077 -0.04242316 0.3689981 -0.045649387 0.095246054 -0.051549815 -0.17299141 -0.3446485 0.07027659 -0.16797875 0.053538032 -0.14237161 0.1672357 0.1398238 -0.016975284 -0.043211456 0.041550938 0.26458737 -0.0011881433 -0.03684943 -0.12302897 -0.076936826 0.00028534862 0.00033482714 -0.22033986 0.2292266 -0.056268487 -0.0578864 0.022390746 -0.04165737 0.21599951 0.004334012 -0.025924891 0.03402425 -0.104673095 -0.027713422 0.07694566 -0.03903523 0.13772178 0.044578373 -0.08309374 0.09158371 -0.093549564 0.18594798 -0.11198689 0.030414673 -0.1439845 0.0025584034 -0.018665548 0.18046036 0.16318165 0.0692268 -0.10100668 -0.032097206 -0.014578398 0.10875814 0.017275956 0.12153003 -0.28338745 0.0071949726 0.14442088 -0.040497836 -0.37743273 -0.0020434293 -0.051552054 -0.04132261 0.35021988 0.08376354 0.15187497 0.13311072 -0.058389403 -0.06538982 -0.14461906 0.027640453 0.040961098 0.38479805 0.31344184 0.022195231 -0.01912688 -0.035724077 0.1590023 0.11994021 0.15914036 0.06530776 0.09125354 -0.01535544 0.02745042 -0.09634239 -0.12834862 -0.036895655 0.11459352 0.19997545 -0.061203133 0.1628722 -0.20545019 -0.052812472 0.013256273 -0.27267236 -0.094101086 -0.1343107 0.074067466 0.061956387 -0.049629264 -0.09806508 0.030484863 -0.09689393 -0.0536867 0.030088875 -0.040667426 0.19065031 0.08486365 0.36355954 -0.07501494 -0.020233072 0.081322476 0.02841578 -0.04701537 -0.100479655 -0.019037537 -0.10321407 0.15298031 0.13390277 0.12384496 -0.05007773 0.06290507 0.21557337 0.04759971 -0.019906823 0.014236408 0.0061430125 -0.22066668 0.24705811 0.19138996 0.04712487 0.112371765 -0.16526684 0.046721816 -0.13020566 0.03536842 -0.113812156 0.048124533 0.20302595 -0.008279042 -0.016259396 -0.0015323509 -0.06013386 -0.049443144 -0.11171398 0.019674523 0.03537253 0.050845783 0.07730628 -0.111038245 -0.04222695 0.12871295 0.09226961 0.21445255 0.029730637 0.05509823 0.12983714 -0.12335877 0.09343125 0.111757725 -0.12625071 0.074369855 0.09064367 -0.034104686 0.19830519 -0.02467332 -0.106376246 0.020545725 -0.17689863 -0.116733596 -0.22485979 -0.10427992 0.04165598 -0.10604933 0.06229532 0.30071032 0.14620283 -0.05976461 0.18766125 0.07656049 -0.06088114 0.00030604465 0.00041709247 -0.027845168 0.23398584 -0.17457429 0.03360224 -0.08968371 0.113811284 0.081618235 0.12526512 -0.21824217 0.13119665 -0.008657956 0.061711997 0.1358099 -0.13551857 -0.028948518 -0.036048844 0.030580929 0.19369075 0.20775941 -0.23580673 0.016961189 0.037346944 -0.024278445 -0.063418806 -0.012497625 -0.025238821 0.07624459 0.23531668 -0.13555828 -0.0963637 -0.23860395 0.056785915 -0.106402636 -0.21815614 -0.053612832 0.016560387 0.26376194 -0.14017439 -0.14665137 -0.24336807 -0.018040676 -0.0020689883 0.14121073 -0.22411509 -0.0087456815 -0.08349735 0.18070155 -0.026499206 -0.17862712 -0.2534757 0.045900367 -0.030245509 0.22834022 -0.16934575 -0.009333896 0.021367315 -0.090960816 0.27964225 -0.12874737 -0.123640805 -0.08660147 0.0921866 -0.22492106 0.0044935704 -0.12871277 -0.046286244 0.13411169 0.083850734 -0.008127918 -0.1050771 -0.04065336 -0.06520488 0.072097346 0.12921673 -0.012305924 -0.009683459 0.05804593 -0.0077991597 0.10953175 -0.0126719335 0.102429785 -0.050174423 -0.057814695 0.12453872 -0.09274105 0.085143454 -0.05975408 -0.07961693 -0.010703261 0.037501078 -0.1070351 -0.017024474 -0.064432256 -0.16041684 0.010018072 -0.104569905 -0.052956473 0.16710295 0.027991416 -0.07501433 -0.10660234 0.08489829 0.07571667 0.113787256 0.0038074062 -0.03079686 0.016586464 -0.037266973 0.106619604 0.234936 0.23223214 0.09333539 0.07716976 -0.06836994 0.032033138 -0.22127935 0.08309624 0.07775105 0.13404194 0.07061871 0.100412205 0.22913954
F -0.106548704 -0.16082276 -0.021036288 -0.008679333 0.028207876 -0.01534005 -0.019902889 -0.019633297 -0.021352172 -0.046075463 0.021545557 -0.08090313 0.02233173 0.035963 0.066680096 -0.021825714 -0.035279892 -0.058554664 0.08913979 -0.026952691 -0.0002514065 -0.025370773 -0.070447475 0.03147895 0.018739616 0.014726095 -0.022938473 0.04441375 -0.00793419 0.031912528 0.06396966 -0.039669912 0.07845665 -0.07434365 -0.0015718627 -0.082967244 0.027443953 0.047321215 0.06535046 -0.031131683 0.08486199 -0.001374194 0.05893009 -0.003545643 -0.031685684 -0.064664945 0.019650033 -0.11077271 -0.035987828 0.049230188 0.0029624805 -0.046365157 -0.008943567 -0.030500604 -0.0072097657 0.025256628 -0.007621953 0.011950213 0.114299685 0.0030343079 -0.057545323 -0.12197377 -0.046164513 -0.06439138 -0.04111649 -0.06336024 -0.079236075 0.028314747 -0.0332607 0.06454398 0.12611023 0.08917061 0.03525984 -0.021830792 0.024792168 0.073339164 -0.021638049 0.069116294 0.030295778 -0.036374122 -0.0268554 -0.04245552 -0.005886824 -0.07589836 -0.046270393 -0.028502295 0.050976958 -0.03470516 -0.015543434 0.031290583 0.027402984 -0.00043583862 -0.007130358 0.008350975 0.046112143 0.025137097 -0.07933509 -0.08404636 0.027628902 -0.009028262 0.055152543 -0.037785817 0.008016289 0.020666813 -0.06389465 -0.026281094 0.046457533 0.012148176 0.052664716 -0.047858577 -0.025749955 0.09547335 0.018738857 -0.04152945 0.055610433 0.010243398 -0.07835181 0.02701504 -0.0007154044 0.055709183 0.016355937 -0.054922976 -0.045439042 -0.16180773 0.0014758075 -0.0077868416 0.027806925 -0.10626869 -0.085915856 -0.060207445 -0.07843035 -0.031006841 -0.025134608 -0.07454707 -0.025380857 0.036112424 -0.06207363 0.0482349 -0.026025843 0.043762762 0.055960096 -0.05191044 0.07741718 -0.0021819342 0.04756189 0.01775358 0.035121284 -0.08380131 -7.849729e-05 0.1440433 0.028862018 0.023829723 0.060551777 0.030304665 -0.0034132272 0.032914348 0.07742728 0.03150117 0.021588398 -0.04403061 -0.08716343 -0.052261308 -0.040312864 -0.0080132345 -0.02997239 -0.021247955 0.012558456 -0.02399052 -0.052740563 0.007728963 0.13803938 -0.063383766 0.014449101 0.023090802 0.0103448415 0.034936856 -0.045261376 -0.08702541 -0.050714735 0.07446547 0.0046598995 -0.043802764 0.0781234 0.009776169 -0.08430476 0.09738202 -0.05621743 0.021428503 -0.06920029 0.030100834 0.039756883 0.04169133 0.04859593 -0.0014096657 0.0042617614 -0.038492974 -0.08603369 0.01331331 -0.00807226 -0.009722347 -0.0035383124 0.05696717 -0.0036942393 -0.12046703 0.0050025764 0.028017443 0.0018464928 -0.008279107 -0.012948113 -0.021477379 -0.02215937 -0.025908686 0.027789596 0.0639069 -0.060815986 0.07783334 0.0836229 -0.02246789 0.037752226 0.018259706 -0.03389381 -0.06916858 0.009350269 -0.027432082 -0.026323374 -0.19641091 -0.030090483 -0.0069272695 0.1111816 -0.044327576 0.0042297863 -0.022879044 0.009868185 -0.03146566 -0.006096561 -0.051401846 -0.018552156 -0.004501207 0.00466846 0.08846395 0.040760566 0.052266665 -0.0063985144 0.05474367 0.0040732767 0.05237236 -0.029031603 -0.022598347 -0.014424345 0.033524495 0.022106705 -0.0483322 0.08690318 -0.03842035 -0.008290549 -0.08208245 -0.04273699 -0.014772342 0.111119464 0.006356288 -0.06955058 -0.05388408 -0.025713217 0.075482376 0.03138703 0.02401696 0.0010784008 0.006028726 -0.017645132 -0.0029501347 0.08136022 0.03581349 0.036780037 -0.11304198 -0.07915063 0.025473189 0.028877702 -0.09711158 -0.0050934 0.06496739 -0.054247294 -0.015514748 -0.0030794272 0.08561614 0.05410191 -0.04991555 0.025782457 -0.009614962 0.014130624 -0.04246427 -0.0622187 0.068281464 0.03200331 -0.07467248 0.016193857 0.13456202 0.011099472 0.051660266 0.010221347 -0.029470101 0.0410504 -0.05896107 -0.06145125 -0.07053721 0.016329985 -0.022974025 0.04484349 0.07676758 0.1251035 -0.030775515 0.006289927 -0.02237816 0.17054017 -0.0300237 -0.045364544 0.05401835 0.021071473 0.06852575 -0.054448258 -0.035395067 -0.19647399 -0.12767136 -0.12273933 -0.01880229 -0.0039154943 -0.08179865 0.13567516 -0.09162686 -0.07267048 0.08524588 0.15935019 -0.079153545 -0.038589362 0.101288214 -0.21886322 0.104054816 0.09156606 0.036381267 0.031922534 0.04283326 -0.055788845 -0.045779485 -0.022786861 -0.048393287 -0.0008071831 0.15348282 -0.047871247 -0.14639193 -0.10285088 0.0027241353 -0.08398984 -0.01764194 -0.061892048 -0.010584384 0.00072677777 -0.0021661532 0.04423303 0.03265376 0.01166042 0.04583545 0.20555177 0.10786193 0.057919458 0.1251519 -0.02304996 -0.002600276 0.21854457 -0.14111716 0.0037800388 -0.15834409 -0.18190844 -0.010815714 0.14372058 -0.26117203 0.028854223 -0.04478806 -0.13257915 -0.08791396 0.0061097555 0.021964787 -0.12660317 0.09785177 0.18105666 0.101596326 -0.14313762 0.05082204 -0.049565326 -0.01610827 0.034519903 0.10171351 0.09576493 0.023198301 -0.08244037 0.023228057 -0.023094922 0.017317384 0.06223941 0.13177547 -0.058338907 0.0027228154 0.0865246 0.023419624 0.03968436 -0.18564929 -0.18516874 -0.13848415 -0.013144652 -0.041076403 0.12072 -0.056350604 -0.054844774 0.119360484 -0.040811088 0.098369196 -0.04579995 0.079095595 0.019031683 -0.0063788784 0.085274555 -0.015771618 -0.10621168 0.039506596 -0.053487714 0.006696761 0.081601806 -0.0102764815 0.1430117 -0.1902087 -0.06520606 -0.11074522 0.012377962 0.13760544 0.05070693 -0.116672285 -0.023966009 0.06965694 0.053699657 -0.18656458 -0.044172283 -0.18086937 0.050341394 -0.008150186 0.12355892 -0.13443553 0.049611617 0.060302228 -0.06885932 0.12002446 0.08889393 0.14853789 0.058930695 0.1100927 0.040879957 0.08377152 0.07705653 0.020893963 -0.06442927 -0.1654085 -0.041436084 0.032319438 0.07138518 -0.034108844 0.06090882 0.058981784 0.05455757 0.058860254 0.17857407 0.064371414 0.015159721 0.09338074 -0.04425604 -0.041129872 0.10536936 0.029430445 0.057730846 0.004744234 5.1153027e-05 0.005621961 -0.004002969 -0.0065491986 -0.16130377 0.011064212 -0.070606075 -0.037333496 -0.035022322 -0.02794326 -0.010493422 0.029083144 -0.101096496 0.08217218 -0.07466234 0.13821341 -0.054088153 0.016283585 0.00742152 -0.001470566 0.049595788 0.0020042253 -0.019192722 0.058649406 0.13484758 -0.10897805 -0.057995237 -0.035018288 0.066674255 -0.050859038 -0.059564345 -0.007014416 -0.09327923 -0.021414423 0.1367423 0.025382668
E 0.011047832 -0.01177322 0.013078495 0.12464292 -0.10841501 0.035412885 0.002191527 0.06994929 0.0205511 -0.20089863 0.0040261773 -0.22374691 0.009630775 0.027379386 -0.11644136 0.08076276 0.036243778 0.0004662366 -0.12904206 -0.012566111 -0.039521605 0.020757688 0.10341209 -0.024311095 -0.058384523 -0.0492595 -0.09447998 -0.07568199 -0.012679533 0.04218492 -0.11206353 -0.0053094686 -0.044138316 -0.059108347 0.028344313 -0.04816192 -0.014385422 0.19920735 -0.041812308 -0.12823416 0.12777261 0.015836647 0.06515389 -0.059597075 0.07957515 -0.047543123 0.07904405 0.055007223 0.028057838 -0.0007216868 -0.03227155 0.051716395 0.033114582 -0.04657327 0.0075230817 0.031521533 -0.066994175 -0.013949497 -0.05947571 -0.036602587 -0.051189218 0.07873496 0.057539646 0.09560501 -0.06419412 0.06919641 0.007832096 0.00079471635 -0.04267068 0.035519518 -0.034640957 0.0307607 -0.024820164 -0.025087468 0.0023045687 -0.037993994 0.09751247 -0.009950106 -0.006922318 0.13416229 -0.012608364 -0.038733307 -0.038530704 0.0608863 0.07963443 0.018295819 0.025844311 -0.003043462 0.019950915 0.026255755 -0.061105397 0.08841796 0.0024993273 0.09918444 0.036149994 0.03020611 0.12410089 0.0052668285 0.0023898892 -0.0051476397 -0.08766645 0.124438226 0.0079538645 -0.0062122624 0.18642579 0.007091117 -0.0603143 0.026963582 -0.059340872 -0.006467174 -0.016172582 -0.06133607 -0.124020256 0.06697319 -0.06111135 0.10025437 0.05892798 -0.03687999 -0.05463896 -0.03320437 0.065054424 0.03478709 0.092031635 0.031811163 -0.05627312 0.083031386 -0.0052060736 0.009790677 0.028522875 -0.019712646 -0.013851323 -0.16666663 0.022374323 0.017372932 0.14649627 -0.098870225 0.037175518 -0.019022569 0.14919728 0.09872276 0.017799119 -0.04307333 -0.19537412 0.016161803 -0.041862313 -0.0021014109 0.0027010308 0.08520234 0.089522935 -0.09798288 -0.036907446 -0.003509309 -0.15251291 -0.052340318 -0.04432059 -0.07644726 0.037272584 0.036960702 -0.06335779 0.018913718 -0.102763794 0.017908802 -0.04639713 -0.037363157 -0.020324823 0.0028464224 -0.07119211 0.010525119 -0.12343828 -0.013728584 -0.011473091 0.071689464 0.023737732 -0.14782572 0.099145055 -0.14602903 0.093670785 -0.06725206 -0.07715059 0.048292387 0.051466327 0.08396506 0.11181145 -0.12156157 0.052153327 -0.035744827 -0.008155503 -0.080630094 0.06749198 -0.077924445 -0.18002361 0.07856335 0.002731013 -0.16300738 -0.02059133 0.012977374 0.08868239 -0.006779791 -0.11926255 -0.084095076 -0.04556912 0.030969465 -0.06264203 -0.029758437 0.017695455 0.06350385 0.015206327 0.057587177 0.034792695 0.030104047 -0.0009748577 -0.10031341 0.11181537 -0.12421352 0.019204604 -0.05245789 0.059284437 -0.023434805 0.03874947 -0.12300479 0.10970238 0.119762845 0.07898075 0.12514262 -0.15704831 -0.07582723 -0.13945016 -0.023840062 -0.035750415 0.10282144 0.08992741 0.08312839 -0.16615973 0.009027876 0.2795598 -0.041614175 -0.18680672 -0.07856509 -0.067249574 -0.08417172 0.031653605 0.11038809 0.007841802 0.074784346 -0.18891335 0.052366722 -0.12281386 0.11637844 -0.06300814 -0.0065706354 -0.15423594 0.07022597 0.15216963 0.12000455 0.022366097 0.11255522 -0.06873161 -0.019592766 0.0035343992 0.107516535 0.11847345 0.126221 -0.07808885 0.043638565 0.0555412 -0.092445165 -0.06272248 -0.15308388 -0.07951854 -0.054705936 0.18174118 0.10276011 -0.08313563 0.035614017 0.036385573 -0.09780301 0.064301915 0.10033825 0.22099121 0.3117526 0.08484688 0.1760572 -0.14054815 0.0072718323 0.14343275 0.11888743 0.17834462 0.14339623 0.0747194 -0.031925872 -0.050969508 -0.09971626 0.09641724 0.023706468 0.097298786 0.001620236 0.0064893905 0.10890692 -0.10544481 0.012437261 -0.08655218 -0.17643727 -0.15188333 -0.13099457 0.11939588 0.166341 0.19763762 0.12106286 0.084139146 -0.05873649 -0.048963968 -0.012927561 0.009547806 0.0030430828 0.092740245 0.031161753 0.05568573 0.032158032 0.049246985 -0.030304436 0.0006467595 0.015438966 0.04158055 -0.089701824 0.09309845 0.008540677 0.14017308 0.09499123 0.00594282 -0.023803392 0.04150045 0.019187834 0.033960108 -0.00404779 -0.019607773 0.052788947 0.047415823 -0.011259293 -0.07334864 0.06393097 -0.033324197 -0.08093806 -0.058324162 0.049462248 -0.04980133 0.028554134 0.06598932 -0.029406287 -0.08508862 0.07302248 0.031720255 -0.05084537 0.056661595 0.026688538 -0.1128578 -0.07754031 -0.07577211 -0.053669736 -0.050813638 -0.0604622 0.013607154 -0.057730764 0.03206028 -0.10998565 0.020903667 -0.051306587 -0.059735846 0.0055825375 -0.10495899 0.0765504 -0.013351146 0.03597489 -0.12539047 -0.037689123 0.02374272 0.10676376 -0.084578596 -0.04159143 0.054295182 -0.036198583 -0.072438635 -0.009984691 0.12496941 0.15492572 -0.044680003 0.03433801 -0.05888867 -0.029548649 -0.008578341 -0.039781757 -0.10495966 0.044901565 -0.023769762 0.029603908 -0.08490128 0.10932237 -0.0040520937 -0.028172208 -0.055277202 0.07199006 -0.025978265 0.008510623 -0.061613765 0.034645826 0.09899306 0.011569378 0.028057322 0.08111281 -0.030820461 -0.08797087 0.008648457 -0.025827317 -0.091918275 0.061125733 0.06934819 0.0003342165 -0.043262575 0.012458687 0.018883606 0.034306243 -0.007984207 0.0151497405 -0.07531963 -0.00011991947 0.046674978 0.021765046 0.0030500933 0.006972739 0.029371366 0.020606427 -0.032170247 -0.024790142 0.023359265 0.107240856 0.08862861 0.025941083 0.035196498 -0.029497666 -0.07821842 -0.0229427 -0.14095066 0.050141938 0.052947 0.04302504 -0.013244008 -0.045939043 0.010239321 0.0103044985 -0.03698631 -0.15646556 -0.022086617 -0.013358642 -0.06974928 -0.059694253 -0.012731859 0.04467071 -0.06132973 -0.031255115 -0.05632042 0.011048027 -0.119080245 0.07819088 0.029734643 0.033674967 0.014220664 0.009747425 -0.054068547 0.035039224 -0.023648871 0.09676195 -0.046050467 0.028255424 -0.0025055502 -0.06876804 -0.009143502 -0.069052406 -0.017477617 0.077826224 -0.04260191 -0.0503308 0.014273728 0.018757809 -0.014585694 -0.01341727 0.037875313 0.039690524 -0.00842005 0.05819847 0.09440155 0.08301298 -0.05228984 0.06628646 -0.007530229 -0.04577114 0.051947627 -0.03509375 -0.022587972 -0.015281209 -0.062106974 0.054806184 -0.087991536 0.09531635 0.029585991 0.18331605 0.036110293 0.055405706 0.08395199 0.0391206 -0.024763446 -0.04475362 0.0008581541 -0.030903585
D -0.040765684 -0.1005079 0.08139498 0.07768222 -0.033167884 0.078625605 0.030115832 0.050064534 0.024265891 0.04793402 -0.049462266 -0.12503313 0.008414996 0.076135136 -0.022307215 0.028433254 -0.057461437 -0.042651534 -0.031602036 -0.013887371 0.12281476 -0.014775497 -0.020054523 -0.129586 -0.090420075 0.0025225175 -0.055344664 -0.052620217 -0.13760836 -0.013257004 0.025148116 0.10762843 0.124830626 -0.09391675 -0.028857326 -0.08960598 0.09046128 0.2155898 0.11814853 -0.10489376 0.12545022 0.0025741307 0.041278567 -0.054060888 -0.06681904 -0.15682933 0.039915003 0.025795465 0.011881836 -0.0011619739 -0.110190354 -0.039421715 0.0106046805 -0.052722495 0.061007313 -0.017693885 -0.1040579 0.035387535 0.08768485 -0.079450384 -0.14863427 0.00804275 -0.12046504 -0.12997642 -0.02449546 -0.034049474 -0.062783726 0.018668253 0.017176015 0.089112945 0.12508358 0.1240945 0.07728876 0.04346139 0.11019597 0.072763756 -0.024719415 0.080098696 0.031586062 0.026403451 -0.067998916 -0.012740554 -0.0040663774 -0.027573679 0.023229906 0.07107817 0.07015742 -0.18584117 -0.100349665 0.038614016 -0.0039570895 -0.03724188 -0.023346322 0.12827453 0.08393076 0.014402868 -0.03225339 -0.12778771 0.0028260825 0.022346472 -0.03422825 -0.07196319 -0.07143064 -0.028035175 -0.01011418 -0.08853099 0.06728924 0.03335855 0.006500167 -0.041360952 -0.009748187 0.040664997 -0.10549863 -0.055739682 -0.03866934 0.052096285 -0.0744083 0.090710126 0.0020151823 -0.0069113444 0.021254579 0.022852104 0.026275309 -0.17386568 -0.074446864 0.023525286 -0.03142036 -0.032146648 -0.07764096 -0.13202411 0.018837295 -0.006863634 -0.012908383 -0.06337977 0.050682705 0.04642212 0.028920691 0.10779361 0.07131322 0.12576662 -0.0134362625 -0.15195559 -0.039437346 0.04509219 -0.014007494 0.089372 -0.045422193 -0.064672954 -0.0638171 0.07514289 0.042605035 0.06348887 -0.13438925 -0.074324846 0.0409699 -0.03339893 0.1108793 0.06192222 -0.06310097 -0.0031290266 -0.16176559 -0.040502667 -0.1014807 0.13572285 -0.008497006 -0.13764308 -0.11494044 -0.0002135125 -0.08721454 -0.06297724 0.07618864 -0.020777412 0.16156146 -0.03784681 0.058944304 0.10338952 -0.017881105 -0.1643619 -0.07744718 0.110666595 0.08631952 -0.023626084 0.13079919 -0.077204905 -0.06716688 0.03272312 -0.039281376 -0.05711648 -0.064385705 -0.02847884 -0.01980451 -0.05644924 0.16266811 -0.082745515 -0.014698169 -0.013550622 -0.033107758 -0.08343823 -0.09310795 0.08278753 -0.06736624 -0.008069774 -0.034828376 -0.13218474 0.08643456 0.013018597 0.00041485258 0.06250882 0.10695799 0.124082565 -0.107748866 0.0046841605 0.1025625 -0.09132709 -0.047378764 -0.047519293 0.071984194 0.019947136 0.11547627 -0.061693754 0.019020585 0.07629807 0.037182532 0.034774207 -0.073390126 -0.30444428 -0.18969886 0.013790248 0.095676534 -0.003213029 0.1473423 0.014359192 -0.096083865 0.00042471313 0.19426954 0.006894082 -0.095822915 -0.06900741 -0.14010137 0.02636179 0.2001743 0.05965691 -0.026839301 0.05167175 -0.16271555 0.11397311 -0.0722923 0.105434 0.06344326 0.07193395 -0.078788385 -0.06905895 0.12590937 0.0833205 0.0598682 -0.0368638 0.06554706 -0.0727062 0.1399488 0.11904794 0.045234267 -0.080701426 -0.15267594 0.07568456 0.009328289 -0.043070763 -0.054886498 -0.07024361 -0.04508116 -0.048586957 0.119759016 0.093264654 -0.008459068 -0.074753396 -0.06902842 0.037762616 0.06087864 -0.043032408 0.019678136 0.32955784 -0.06772994 0.126159 -0.15659149 0.058291256 0.08445969 0.13825563 0.21096767 0.076808415 -0.04749317 -0.07963864 -0.0384706 0.00933103 0.0061991406 -0.010251963 0.0739405 0.13503678 0.046544027 0.06912073 0.011872951 0.03952848 -0.07392103 -0.10119738 -0.053203493 -0.19701426 0.09208221 0.05250328 0.09322902 0.028456595 0.17035946 -0.056080736 0.027624212 -0.091411315 0.085988745 -0.06402795 0.005705853 0.11891317 -0.04569349 0.04924426 -0.044964332 -0.10507018 -0.18513347 -0.175012 -0.11400266 0.065620445 0.10034482 -0.038924444 0.060395516 0.0044455864 -0.041743178 0.0903229 0.052198388 -0.09021855 -0.006278875 0.1682257 -0.21036708 0.16122225 -0.0009388085 -0.03927105 -0.0812117 -0.031798527 0.056523982 -0.061756797 -0.039550547 0.036427878 -0.048171856 0.025360676 -0.014381585 -0.00031031595 -0.008623532 -0.0235729 -0.05511644 -0.0052548796 -0.055465907 0.091176435 -0.08618012 0.0084841335 -0.0984777 -0.06859612 -0.1613326 0.006813383 0.0703501 0.14935748 0.025060877 -0.03297259 0.10137041 0.062420003 0.081632 -0.106405884 0.06334068 -0.12358135 -0.16257064 0.0694617 0.086145625 -0.11736697 -0.023618445 -0.039968465 -0.060229346 -0.008461939 -0.021440685 -0.027945202 -0.18339089 0.06944172 0.110395886 0.051392477 -0.07922332 -0.096664675 0.010525587 -0.094233766 0.1173322 0.029186182 0.071248844 -0.044766795 0.023508571 0.09597401 -0.049548503 -0.04616058 0.07634759 0.01073607 0.061639123 -0.100385554 0.008636511 0.041212182 0.052654207 -0.01435565 -0.025973417 -0.004721859 0.026441654 0.087995134 0.060502827 -0.0009171749 0.029638337 0.05313706 -0.10448718 0.03511283 -0.13165809 -0.01055494 0.00022823163 -0.013157423 0.11016041 0.064450786 -0.07686512 0.0433183 0.0023291325 0.16399951 0.08508271 -0.02104199 -0.03353146 -0.1073364 0.00805722 -0.08099441 -0.0087480955 0.067147456 0.043175537 -0.05099584 -0.1162929 0.057687957 -0.053004522 -0.118732184 -0.0039098263 -0.060268268 -0.0078670345 -0.07475172 0.09905557 -0.17227776 0.051003072 0.073627256 0.04801131 0.008877864 0.08051945 0.011254682 -0.09038975 0.02931274 0.0020010592 -0.06205724 0.08269729 0.01593406 -0.03955697 -0.034964543 0.00190882 0.013159173 0.020286398 -0.008365792 0.080407515 0.12091338 -0.009525075 0.12640423 0.07490461 0.100721054 -0.017019706 -0.023269229 0.028371505 0.10612006 0.16714428 0.026383137 0.023557922 0.07910477 0.08614022 -0.07767689 0.12537724 0.047854282 -0.043211333 -0.085855275 -0.09546568 0.034399886 -0.015448722 0.041451167 -0.15032855 0.0049624825 -0.0021197663 0.002592395 -0.087270476 0.06546195 0.014296664 0.06323133 0.06427247 -0.06973381 -0.024522966 0.04154947 0.037379984 -0.025662517 -0.060807582 -0.0069922186 -0.05079168 0.13312197 -0.082417235 -0.020704404 0.041862503 -0.014705135 -0.097462595 -0.13048045 0.112937875 -0.07634836
R 0.0005703076 0.031316243 -0.012183496 0.17933021 0.080391474 0.08789286 0.04602301 0.057812653 0.004317761 -0.124335565 0.24392706 -0.20128694 -0.13143662 -0.0015842271 -0.14760502 -0.08918076 0.068099424 0.044301078 0.2158834 0.16757949 -0.14080496 0.3011618 -0.09950039 0.18908642 0.25359002 -0.013903262 0.037171822 0.017824464 0.040401194 0.031982988 0.24597566 -0.41575393 0.06550254 0.04388588 0.18339925 -0.026503941 -0.15924737 -0.14117041 0.111562915 0.19895178 -0.1127791 0.11700373 -0.06705735 0.07397099 0.044465993 -0.11813231 -0.032808255 -0.263318 -0.18402757 0.15196055 0.08694077 0.064117074 0.0109679755 0.14638567 0.01111619 0.03397265 -0.050683938 -0.1410154 0.13491164 -0.010553549 -0.0466238 0.055799294 0.18441845 0.036103986 -0.0054151723 0.022853876 0.03105865 -0.10854145 0.050053146 0.0426356 0.029126836 0.15634578 0.080024734 -0.037080053 0.03953501 0.105755165 -0.067769036 -0.14747436 -0.11171002 0.05655741 0.025213916 0.10928313 0.02018911 -0.19626707 -0.090973124 -0.01894236 -0.16028328 0.016828455 -0.05375559 0.07975803 0.10391902 -0.07878115 0.03198812 0.070532255 0.06742052 -0.0034221932 -0.31245366 -0.11203011 -0.076643325 -0.16642185 0.27390486 -0.06463759 0.0043382277 0.071029596 -0.07817319 0.022339601 0.14524342 -0.014141361 0.06783204 0.08170913 0.06501214 0.15280136 -0.12074952 0.055377126 0.037036847 -0.11594148 -0.03277102 0.009834045 0.12985492 -0.13768269 0.09101286 -0.12316619 -0.1813619 -0.27178884 -0.018747669 0.19564039 0.12736747 0.017659705 0.025558041 -0.027489029 -0.10052607 0.029941747 -0.011929922 -0.018116578 -0.10234459 0.24070852 -0.22534324 -0.06092815 0.07810512 -0.0417912 0.15535513 0.09495822 0.15179025 0.013223323 0.150588 -0.21646711 0.16913386 -0.02064696 -0.000584221 -0.027515108 -0.016363913 0.10717085 0.28312814 0.043620154 -0.06929398 0.118012264 -0.05014064 -0.0760626 0.02209347 -0.05253065 -0.05235581 0.17637445 0.018893993 -0.15568808 0.0010113756 -0.18044095 -0.02703403 -0.047627274 -0.13039787 0.049231064 0.11469094 0.0800883 -0.1448813 0.07248297 -0.030778954 -0.042509343 -0.12385893 0.0601473 -0.029269937 0.16495016 -0.02059658 -0.017718505 0.1400297 -0.09835766 -0.014894314 0.02605383 -0.23204622 0.057340033 -0.22952314 -0.024201626 -0.077363 0.0994265 -0.12527964 0.02848552 0.0051251356 -0.15276541 -0.08145779 -0.045696035 -0.14521596 0.046596196 0.13541651 0.11071216 0.06559835 -0.05928267 0.0011681081 0.23061927 -0.14303038 0.10046912 0.014413694 -0.095708236 -0.047761098 -0.13434152 -0.036814854 -0.07367276 -0.11723782 -0.02323891 0.05230664 0.11145813 -0.07092616 -0.13601442 0.11367996 -0.12270613 0.045778323 0.11838248 -0.08023193 -0.42048946 -0.23589563 0.008007606 0.25892633 0.117568865 0.081979744 0.21614209 -0.065140724 -0.030471832 0.27703196 -0.077867486 -0.24799494 -0.062475756 0.12149328 -0.0016102067 -0.093448676 0.24303788 -0.05453757 0.0124830855 -0.17135522 0.05713109 -0.089981906 -0.14051163 -0.062052034 0.08912176 0.10168437 -0.15553372 0.23334621 0.20011745 -0.07568127 0.07227797 0.04408756 -0.0066778753 0.12610932 0.03736878 -0.0752238 -0.11528 0.046508044 0.005209752 0.13614371 0.021955403 -0.11045527 -0.13860662 0.06610968 0.12254427 0.14933257 -0.10211661 -0.08440379 -0.13401376 -0.16042605 -0.13621086 0.12569307 -0.09742418 0.1315558 0.23110914 -0.051739622 -0.0049239662 0.10549772 -0.016545784 0.033034626 0.08130857 0.04352322 -0.036219817 -0.17215824 -0.06372447 -0.029774463 0.1526778 0.05686631 -0.030800639 0.08760472 0.10251103 -0.023076864 0.09678351 -0.11787334 -0.04233885 0.07724947 -0.024354761 -0.11473899 -0.091636464 0.07237661 -0.0956743 0.051508076 0.14647904 0.21514441 -0.119382344 0.08452266 0.15303624 0.24575567 -0.09933095 -0.15606248 -0.00438205 -0.0442017 -0.1670664 0.12283016 0.050814886 -0.14152896 0.015600072 -0.037720334 0.06558111 -0.08857962 -0.13336512 0.19621883 0.038975906 -0.09895254 0.20876509 0.1749612 -0.09024449 -0.056719624 0.008511304 -0.18384488 0.21221262 0.10817449 0.107882276 0.15602192 0.24438614 -0.073096864 -0.01662698 -0.13741763 -0.035844784 -0.04828619 0.015457803 -0.20134129 -0.15346186 0.0009458649 0.0330932 -0.1718443 -0.022679212 0.012784246 -0.12972806 0.12617397 -0.11102795 0.0155286 0.04193684 0.04173706 0.058158524 0.14830033 0.014402195 -0.050848495 -0.040275037 0.0004684897 -0.11943515 -0.110368274 -0.22004433 -0.085587695 -0.1608498 -0.009925195 -0.05987893 0.07606759 0.05112176 0.019791277 0.11870632 -0.09039961 0.042393446 0.06955573 0.029884463 0.091823146 0.20228444 -0.0697766 -0.11392497 -0.062305383 0.050231684 -0.19986004 -0.071344964 -0.045944843 0.05591282 0.1771081 -0.07951076 0.019303825 -0.10609533 0.25559184 -0.08334662 0.16003998 0.029706316 0.06832104 -0.03854767 -0.10697517 0.10702342 0.025397634 -0.031474415 -0.19614655 -0.21251756 0.016367922 -0.0999466 0.1781005 0.16938531 -0.1968294 -0.00017010386 0.09631759 0.04380703 0.1332002 -0.037315786 -0.06873785 -0.005712104 0.07319299 -0.14438254 0.05885075 0.057522133 0.05111145 0.000521951 0.097843565 0.06695186 0.050083797 -0.03484971 0.059114553 0.031594418 0.0013027539 0.12977894 0.032630038 -0.0805644 -0.016146492 0.008173008 -0.05844826 -0.06765608 -0.0059336964 -0.0519815 0.074054584 0.17110075 -0.024695486 0.09529643 -0.039387163 -0.0874264 -0.13123374 0.0021937701 -0.081816375 -0.029151933 0.0073451563 -0.12983677 0.0669725 0.1580566 -0.03867524 -0.05545081 0.025504714 -0.08415918 -0.029854346 0.03453547 -0.12195696 0.1378272 0.011628675 0.10227152 -0.078788824 0.02145342 -0.1507134 -0.043092426 0.021472942 0.02392469 0.18561146 -0.012928798 -0.10713412 -0.038245846 0.0145047875 -0.049816143 -0.012025512 0.0017624642 0.010712119 -0.26795232 -0.09225684 -0.05380094 0.010409608 0.022026846 -0.107606255 -0.055968132 0.14369333 -0.021322006 0.00802018 0.060524583 -0.051338926 -0.058810346 -0.06124226 -0.035406947 0.09373052 -0.030183382 0.0036998072 -0.040878717 0.034116916 0.039329935 -0.028171135 -0.1549492 -0.0868846 0.015827836 0.04072804 -0.029727345 -0.14589725 -0.026352875 -0.087884404 0.060620222 -0.03721079 0.018260043
K -0.07326848 0.030213267 -0.03976927 0.11005388 0.113468826 0.122321844 0.08292252 -0.026070202 -0.012068804 -0.067445576 0.27167225 -0.14515401 -0.12609062 -0.012392155 -0.15018757 -0.11775033 0.07422708 0.034417074 0.20309274 0.18176138 -0.15435226 0.363948 -0.1004665 0.18561971 0.27676696 -0.014171518 0.02344828 -0.01264919 0.056447994 -0.011344339 0.1855058 -0.41074365 0.08757761 0.03993344 0.17374797 -0.08299287 -0.1464248 -0.070345245 0.086022586 0.15986395 -0.07585078 0.15379249 -0.115807064 0.07273475 0.07089396 -0.14541633 -0.021473892 -0.29478753 -0.20145655 0.14286044 0.10156775 0.06099928 0.005463785 0.1480404 0.03633525 0.053204574 -0.08982743 -0.18151851 0.12439087 -0.003970039 -0.07804345 0.08938597 0.26357642 0.0796913 0.006464164 0.043950386 0.036110856 -0.11211099 0.052978646 0.02641948 0.053137463 0.16647516 0.082910866 -0.062072664 0.05527651 0.09389444 -0.024768079 -0.20504463 -0.12864839 0.091101944 0.03724989 0.13402565 0.058397368 -0.21907234 -0.112143315 0.0013610318 -0.19352031 0.038727865 -0.037995 0.07346904 0.12787679 -0.08566192 0.0072107585 0.057100546 0.114935644 0.0062653413 -0.28555673 -0.121530175 -0.08499156 -0.17172094 0.2864559 -0.05558925 -0.013024879 0.08899493 -0.06293747 0.020143053 0.17807968 -0.026771322 0.093042135 0.08465981 0.03929204 0.1972968 -0.13760622 0.049956523 0.034487728 -0.14860281 -0.030356707 0.018818961 0.13863744 -0.12972024 0.09917165 -0.11267139 -0.15084058 -0.28631982 -0.02462876 0.23514576 0.13942342 0.042390823 0.037387613 -0.018337723 -0.14628884 0.026488448 0.023912825 -0.025722068 -0.11527669 0.25560468 -0.26350838 -0.076209225 0.11596817 -0.045009125 0.18514656 0.09890155 0.14870946 0.0021133604 0.1566593 -0.25183174 0.23382127 0.0014250699 -0.019817518 -0.048382215 0.004762686 0.09251522 0.30976504 0.04045591 -0.08959188 0.15458775 -0.0451255 -0.08173709 0.017377233 -0.012120309 -0.04355811 0.13823563 0.0194028 -0.16844933 0.016278533 -0.16358867 -0.047649793 -0.05914141 -0.09369473 0.09067618 0.13423362 0.0988646 -0.19208685 0.084819496 -0.08351737 -0.038338087 -0.10280845 0.07174186 0.021842942 0.16979392 -0.03514787 -0.020002035 0.1288624 -0.0781731 -0.004860841 0.008300482 -0.21550548 0.06608801 -0.23554559 -0.018202726 -0.05706906 0.14489344 -0.1461939 0.037904203 0.028894028 -0.15530609 -0.10282011 -0.019398568 -0.18206902 0.07020443 0.20855996 0.123819515 0.054762114 -0.088432714 -0.0032930626 0.24785347 -0.20691808 0.10223681 -0.029167738 -0.07985181 -0.013786025 -0.09015734 -0.06126453 -0.09410789 -0.14091799 -0.002558647 0.030596245 0.12475254 -0.069053955 -0.17211989 0.13712433 -0.12517232 0.07632185 0.13670413 -0.06744824 -0.40203205 -0.26365498 0.01084401 0.269348 0.10987078 0.09715876 0.20584963 -0.06772311 -0.043034155 0.27509928 -0.089955404 -0.27673286 -0.06854122 0.11949103 -0.05281123 -0.108511254 0.26096326 -0.046187125 0.01253201 -0.22322816 0.071226075 -0.11034217 -0.13154288 -0.058815025 0.10167297 0.06641039 -0.1275864 0.23197687 0.2430536 -0.10559276 0.113330625 0.041365575 -0.015937334 0.12802398 0.0773195 -0.05279977 -0.11728473 0.10315859 0.014360544 0.14988756 -0.0073453835 -0.10916361 -0.18342935 0.033947933 0.11203413 0.14052789 -0.13451141 -0.12528774 -0.118239425 -0.18051282 -0.17208216 0.16864543 -0.07963287 0.20995565 0.35880363 -0.033372138 0.058002535 0.088185325 -0.01668713 0.051349953 0.14225475 0.11401852 0.026446044 -0.20154117 -0.10108721 -0.041350406 0.16762358 0.11023019 -0.022251971 0.09550089 0.10610048 -0.016822707 0.14479001 -0.1458104 -0.036607128 0.064051844 -0.021597393 -0.17029038 -0.1264922 0.087463394 -0.058329683 0.11129338 0.16099484 0.2806826 -0.15127808 0.079356074 0.16778958 0.283007 -0.09556367 -0.14121 0.01352112 -0.062208787 -0.16575393 0.15339313 -0.007012974 -0.15980926 -0.0052844984 -0.03489749 0.081661046 -0.04837551 -0.13678029 0.2418541 0.094977036 -0.095058486 0.24262954 0.21218917 -0.12079788 -0.05905779 0.04047696 -0.2183632 0.24077977 0.11261366 0.1265519 0.13940084 0.2842636 -0.12389078 -0.032384228 -0.15373692 -0.011307878 -0.08364936 0.0026620291 -0.24473524 -0.15695573 -0.033372447 0.03651456 -0.17361845 -0.029956298 0.025793789 -0.13129938 0.11592303 -0.14904815 -0.013442179 0.022378061 0.044908077 0.0847295 0.13678749 0.039340682 -0.029040867 -0.06437347 0.035575774 -0.14826761 -0.15286416 -0.2439233 -0.12124717 -0.15650874 -0.017252857 -0.07877874 0.03942914 0.07997821 0.02830731 0.15497796 -0.09649945 0.075717196 0.09815203 0.044736158 0.098118044 0.21342267 -0.09411105 -0.11683947 -0.07211307 0.039813384 -0.23756717 -0.0950554 -0.040041808 0.053589977 0.17236653 -0.115190536 0.04947859 -0.10794801 0.2664669 -0.07113489 0.18619657 -0.005982423 0.10409185 -0.06484552 -0.1593129 0.12853703 0.002779713 -0.014727969 -0.17836519 -0.23798501 0.045486223 -0.116199456 0.15183082 0.2392719 -0.20120169 -0.017439354 0.05808886 0.04544528 0.17414269 -0.059929397 -0.08767357 -0.031131702 0.06712729 -0.12382941 0.12833172 0.062484384 0.070243604 0.05699254 0.10062523 0.11543591 -0.08528389 0.048256144 0.14548261 0.13434553 -0.017010476 0.15163714 0.03328825 -0.018615803 -0.018454678 0.029388083 -0.097149484 -0.057033285 -0.0026996706 -0.03609374 0.07686423 0.18920267 -0.041504007 0.15360838 -0.02407172 -0.11797044 -0.15102601 -0.024442425 -0.09937166 -0.07732348 -0.01783533 -0.20108545 0.10460951 0.14839545 -0.026672473 -0.078298084 0.031103307 -0.11156366 -0.045137294 0.062010728 -0.12108243 0.16664432 -0.018415563 0.10894245 -0.120011464 0.04195284 -0.21214771 -0.038505316 0.008663918 0.043128498 0.18624614 -0.005220525 -0.10475088 -0.08538025 0.020728314 -0.07434649 0.027320579 0.03965231 0.002213838 -0.3375306 -0.0892001 -0.034668323 0.027970992 0.03705949 -0.13861494 -0.044883817 0.16373757 -0.065121695 0.031641297 0.089631416 -0.10818621 -0.056244943 -0.1383195 -0.04825159 0.13340464 -0.04881906 -0.010601241 0.011233924 -0.0028111704 0.07099225 -0.04809385 -0.19989601 -0.12074163 0.038538348 0.060563292 -0.020361904 -0.193902 -0.030190174 -0.10481986 0.023628175 -0.065856434 -0.011121816
I -0.027277738 -0.026815714 -0.07169093 -0.052746926 0.008069891 -0.03139627 -0.061574414 0.041261308 0.0070748394 -0.11449536 0.030615397 -0.057477668 0.047117587 0.02471956 0.13867372 -0.013234016 0.072139084 -0.04507229 -0.06350159 -0.018849786 -0.111030586 0.029505711 0.039598245 0.07584534 0.10936308 -0.031202877 -0.018723322 0.0052224537 0.015213871 0.08366089 -0.046032585 -0.04093872 -0.021063901 -0.00025552022 0.048081685 0.10654249 -0.1153806 -0.07029877 -0.017504897 0.053597428 0.018024847 -0.0237907 0.05067286 0.03570329 0.027086169 0.0061402544 0.0636202 -0.040871717 0.032909084 0.026608486 0.096849985 0.07076868 0.026304705 0.04145624 0.039688226 0.10948239 -0.0013955184 0.0033910328 -0.0060046427 -0.043403286 0.045875624 0.011350108 0.047417544 0.054020066 -0.03345649 -0.05003844 0.010281448 0.023989372 -0.051441442 -0.013094979 -0.020452961 -0.06572696 0.047304258 -0.0129003385 -0.026951626 0.07280382 0.057840396 -0.06659008 -0.051710308 0.08437159 -0.021374114 0.0047231354 -0.060256258 0.04549155 -0.008642998 -0.029642263 0.014943751 0.06528101 -0.011730061 0.076568626 -0.05401553 0.06715358 0.026294546 -0.046011534 -0.060850017 0.0053958856 -0.069204435 -0.019711493 0.009273951 -0.060522314 0.050085265 -0.0124605745 0.05010259 0.033129755 0.050322026 0.11061607 0.07397319 -0.037779585 0.024394972 -0.004265254 -0.007740938 0.009604909 0.07623601 0.027037881 -0.022059133 -0.02755409 -0.0061864033 -0.084070645 -0.055771187 0.026465012 0.010292235 -0.017767267 0.018471941 0.0044966917 0.04464742 0.021193383 0.027981596 0.003948385 0.031893604 0.022169106 -0.02120478 -0.119248755 -0.0030241797 0.044671427 0.0035651512 -0.050522577 0.0054150997 -0.0047415583 0.02996203 0.016973052 0.018458568 0.05021571 -0.002830529 -0.024501028 -0.009021169 -0.043445915 -0.037350986 0.033567708 0.09426517 -0.07196629 -0.06384683 0.0065147895 0.025941847 0.027236512 -0.05242285 0.030761566 -0.0030596852 0.02080674 0.0063664997 -0.024932358 0.031664003 0.022628881 0.008881731 -0.078657724 -0.06311153 0.03226282 0.06399468 -0.04022663 -0.0834518 -0.035096698 0.015833111 0.06734027 -0.05685467 -0.041430254 0.007499047 -0.12216191 0.057072192 0.036618102 -0.01160806 0.010320928 -0.008265334 0.007248169 0.03786645 -0.028266275 0.031782206 -0.0038805748 -0.024670864 0.014231706 0.026125768 -0.028934296 -0.08376972 0.0892572 -0.014583665 -0.025172003 0.009619772 0.02126255 0.06896458 -0.013220139 0.012733265 -0.072196566 -0.011134595 0.06621704 -0.020253455 0.012076112 -0.020884624 0.046113595 0.02081029 0.024714893 0.016011907 -0.057267413 0.014815362 -0.07101182 0.002319508 -0.01457397 0.02147915 -0.00207084 0.05955751 -0.03016489 -0.0015091007 -0.041827727 0.056719568 0.02313704 0.042320993 0.009871139 -0.13704321 -0.031978283 -0.03751707 -0.016220637 -0.014942711 0.10538372 0.012178317 0.07402103 -0.043657206 0.012186924 0.11765937 -0.00032917666 -0.06844433 -0.013230684 0.020195695 -0.08319652 0.021302246 0.09096421 0.009313823 0.027065007 -0.048518468 -0.017019559 -0.07233066 0.04064549 -0.06846017 0.001816502 -0.06250444 0.06843744 0.04220328 0.062185574 -0.00991004 0.05651761 -0.078466654 -0.022248913 -0.047682825 0.02041021 0.018306753 0.1196128 -0.00034364025 0.024141127 0.07481297 -0.047141895 -0.09746846 -0.048664577 -0.032501742 0.014847262 0.0907431 0.069936946 0.0053984956 0.028357165 0.01694824 -0.0716807 0.032491583 -0.0018759485 0.07538858 0.018949118 0.037668243 0.024021031 0.013959829 -0.015485444 0.039133556 0.024280753 0.0039911186 0.09261312 0.08441363 0.046511233 -0.020652618 -0.07470248 0.014503419 -0.05071016 0.055111058 -0.008992953 -0.02759272 0.03994801 -0.060805395 0.0044434867 -0.018556144 -0.09988018 -0.057855487 -0.011774654 0.0653387 0.03549157 0.009013076 0.063405745 -0.017308645 -0.03004567 -0.01339804 0.04506716 0.054057278 0.010278311 -0.0046615787 0.033119142 0.07049331 0.009907422 0.04813514 0.011842668 -0.088849135 -0.048484065 -0.016859332 -0.089648515 0.055419374 -0.016815731 0.14942145 0.01566524 0.008553314 -0.0021570236 0.0938544 -0.018090593 -0.019770708 -0.0117810285 -0.0887595 0.05415163 0.10959842 0.043397173 0.040231783 0.052040253 -0.08687729 -0.0388406 0.0056901895 -0.018799124 0.042030647 0.116349556 -0.0019857397 -0.030224785 -0.06649326 0.021923074 -0.041176222 0.0007202497 0.028490623 -0.0034842289 0.03778495 -0.044449747 0.03514746 0.046612363 0.08448527 0.02099784 0.13731554 -0.06437674 0.06450125 0.00024878298 -0.050672863 -0.02993709 0.09303096 -0.07690842 -0.04165273 0.043865804 -0.051480472 0.010671168 0.044675328 -0.15059073 0.088751994 0.051611613 -0.1343395 -0.10802539 0.10934212 -0.03267222 -0.12141922 0.018919928 0.19498532 0.1549793 -0.10074682 0.13125052 -0.024687495 0.0012625323 -0.060297824 0.055329595 -0.06829802 0.11681973 -0.12045089 -0.025119388 -0.07757397 0.09299583 0.035835624 0.030916564 -0.062217608 0.0486159 0.03989612 0.056450196 -0.08215358 -0.107343905 -0.10563046 -0.1315811 -0.06402115 0.040787067 0.067950144 -0.055268727 -0.051906753 -0.010868196 0.023895742 0.060595233 0.027420647 0.06221139 0.028791599 0.005249559 -0.017808171 -0.04056603 -0.057748508 -0.0023593816 -0.12351002 -0.124286026 0.03630525 -0.006582239 0.21000737 -0.13690233 -0.026942931 -0.1239127 0.007704945 -0.006042624 0.04989235 0.027861144 0.0223285 -0.03845957 0.05831952 -0.021383666 -0.098267056 -0.17230819 -0.065513365 0.07511614 0.099292785 0.0012984533 0.007547857 -0.034607433 -0.013176075 0.09235373 0.040497564 0.06684027 0.18021145 0.17307335 -0.018007452 0.12340148 -0.008759939 0.05629067 -0.091953166 -0.13215226 -0.067181386 -0.015127085 -0.035257258 0.08413432 0.0010255077 0.042905804 0.100244574 -0.03427832 0.016536307 0.068373695 -0.017099012 0.09562342 -0.050380833 -0.068347394 -0.11124375 -0.016226899 0.028971465 -0.0350504 -0.032843266 0.08011075 -0.08114777 -0.051731847 -0.13114485 0.09598487 -0.027789673 -0.09809693 0.008807323 -0.007369351 0.08127042 0.059756745 -0.032096818 0.12269267 -0.0150684295 0.078293 -0.046011664 -0.069880195 0.043355267 -0.0665194 0.0016596906 -0.035415653 -0.047782786 0.10166639 0.042157 -0.0014638759 -0.012707984 0.01565149 0.09148801 0.013640833 -0.02432221 0.049283005 -0.016543014 0.020171594 -0.0013629952 0.035147116
V 0.030726168 0.004603287 -0.010531848 0.027565496 0.018484116 -0.007988019 -0.038890444 0.0785839 0.027577551 -0.05072572 0.04583935 -0.05389751 0.020731628 0.025148988 0.10014041 -0.019980138 0.044084936 -0.006217505 0.01316768 0.009703012 -0.05989215 0.03937566 -0.002612415 0.06397381 0.09277953 -0.011581628 0.008967152 0.0108371535 -0.02164367 0.08982448 0.063792884 -0.09723194 0.011703762 0.019516202 0.05662944 0.08820555 -0.08604373 -0.10552262 0.042127997 0.10014365 -0.042641606 -0.023122571 0.025487982 0.030407062 -0.00069347495 -0.022728208 0.030843465 -0.059869494 -0.017020257 0.0503313 0.05315938 0.05411043 0.019082015 0.06415328 0.019233363 0.054541897 0.0048232414 0.02072188 0.036867026 -0.04136189 0.029601755 0.02581638 0.005842228 -0.019768463 -0.01481753 -0.053044528 0.0045349603 -0.027311338 -0.012223707 -0.008041414 -0.01935341 -0.021931523 0.054086704 0.011627301 -0.0040092543 0.07376013 -0.015525758 -0.038013536 -0.049090985 0.039552182 -0.009499306 0.01867062 -0.05129961 -0.01201719 -0.0170184 -0.029143156 0.0008784636 0.0054877265 -0.038191523 0.055405673 -0.020459801 -0.0052944073 0.021645512 0.0041189897 -0.053933527 -0.0142563265 -0.1222828 -0.031557262 -0.017477604 -0.056291364 0.07442165 -0.057085514 0.023987606 0.022715352 -0.023888126 0.079681 0.08872792 -0.031186435 0.006811087 0.007973777 0.02461671 0.018057087 0.04091694 0.017599259 -0.016638618 -0.038804714 -0.014438243 -0.044406306 -0.017612183 -0.031275824 -0.0024191493 -0.042361863 -0.043702822 -0.049453862 0.026758267 0.029152684 0.022434175 0.013566326 -0.005226584 -0.023381291 0.036643334 -0.05426889 0.0031538566 0.044768646 0.0025855997 0.013038201 0.018446686 -0.008553475 0.027276596 0.012331497 0.013988459 0.037273403 0.042977393 -0.0047255093 0.013997345 -0.04580124 -0.052508302 -0.009143921 0.036283743 -0.051695615 -0.048263136 0.05052808 0.038844414 0.024153808 -0.019409934 0.031098053 -0.01535767 -0.0045838365 -0.0026902189 -0.04939254 0.0021199866 0.074740656 0.007379286 -0.038582068 -0.0434212 -0.0646198 0.030522577 -0.030468076 -0.10249159 -0.06497598 0.023537794 0.04879203 -0.016259909 -0.013746315 0.021955814 -0.05204989 -0.022405567 0.036902048 -0.02508046 0.028755499 -0.00602659 0.0064354804 0.059419073 -0.05792285 -0.007152176 -0.006171064 -0.07515779 0.014405552 -0.028960647 -0.026807185 -0.07210187 0.025599498 0.003603527 -0.001606235 -0.025096452 -0.026670191 0.024673969 -0.060796466 0.015006466 -0.026122022 -0.033596337 0.049214926 0.011366383 0.016028633 0.009368229 0.058084995 0.027111817 0.04829969 0.069643654 -0.034317967 -0.031712886 -0.0870821 0.01984166 -0.026832273 0.012555424 -0.027976206 0.05405007 0.0250884 -0.016682312 -0.01885168 0.055668395 0.021905664 0.024229836 0.021603117 -0.11457365 -0.13644658 -0.08026343 0.0038459213 0.03322492 0.09150961 0.035153497 0.081678115 -0.028201057 0.016195107 0.13066469 0.020617548 -0.055943653 -0.017837854 0.0076497253 -0.020139758 0.031900145 0.0714096 -0.0035654353 0.01518291 -0.057194848 -0.0028654027 -0.037962403 0.01114694 -0.017965278 0.018041993 -0.0039905463 -0.025596619 0.06545082 0.071076326 0.009841168 0.017013453 -0.0070552155 -0.0229595 0.002376999 0.005756044 -0.0035561519 0.024536237 -0.03461031 0.024684675 0.07416529 -0.0038403757 -0.11505556 -0.045059033 0.013785724 0.044185072 0.08618264 0.03532517 0.0081996815 -0.025727637 -0.01685523 -0.06681009 0.024132336 -0.037788514 0.021647146 0.06114389 0.0019647072 0.0020707068 0.026162252 -0.021426063 0.014993446 0.020731114 0.004997878 0.030305192 0.0011205495 0.020412825 0.02558708 -0.005782499 -0.021464203 -0.04515539 0.04905862 0.041125618 -0.028004196 0.018737828 -0.040371247 -0.017886639 -0.0013450652 -0.06645713 -0.01997361 -0.025934558 0.047406487 -0.028203873 -0.039759357 0.02447258 -0.009642863 -0.019629784 0.017764658 0.044338394 0.059604138 -0.019053575 -0.05809151 0.038178407 0.013825947 -0.045076817 0.03478036 0.03836372 -0.09432531 -0.048897598 -0.023324767 -0.009842598 3.1191407e-06 -0.029254088 0.09857685 -0.009344281 0.0003076649 0.044200957 0.067296825 -0.015291929 -0.019694563 0.0026710075 -0.095997125 0.09683116 0.062633395 0.03093434 0.07108769 0.029440694 -0.03407766 -0.0072500915 -0.00735092 -0.03841025 0.040334743 0.0963363 -0.047027115 -0.02916359 0.008899155 0.007597627 -0.061214242 0.010503026 -0.007413759 -0.016603779 0.07013696 -0.007362721 0.022513393 0.043293387 0.04594521 0.03275482 0.107503235 -0.029447908 0.015542465 0.012699585 -0.025541468 -0.007953156 0.06478738 -0.09114549 0.00161982 -0.020707663 -0.052383948 0.022853045 0.09428531 -0.10669429 0.038014144 0.016070241 -0.083516195 -0.05933152 0.053414457 -0.026217382 -0.08392905 0.041763373 0.123287626 0.070581086 -0.060984917 0.074827924 -0.017062828 -0.012087778 -0.035062775 0.049324606 0.0023560927 0.0731216 -0.08321376 -0.02809191 -0.010502573 0.020492006 0.053147886 0.05415107 -0.019393826 0.014931137 0.025006179 0.05975043 -0.01254093 -0.07763784 -0.13992772 -0.118559025 -0.05186706 0.027144687 0.11029922 -0.015738832 -0.076215394 0.002406323 0.060563035 0.038091563 -0.017513245 0.038621332 0.024189195 0.013774218 0.0058070803 -0.07306391 -0.07962695 0.019528782 -0.06630899 -0.09537461 0.041627977 -0.030464726 0.2128522 -0.15998062 -0.043807287 -0.15739848 0.022581419 0.0022829548 0.045130033 -0.052304685 -0.03230824 -0.0385825 0.036582254 -0.037031848 -0.061251093 -0.1434424 -0.012754313 0.05789074 0.08772751 -0.05232336 -0.003674923 -0.008397124 -0.025923884 0.093885 0.036342047 0.088775456 0.14108326 0.14958212 0.0066405176 0.107617624 -0.012718681 0.02302876 -0.066964366 -0.114114486 -0.03739516 -0.028327577 -0.012590105 0.068994924 0.009563211 0.0678197 0.11239568 -0.02850243 0.059613552 0.06191658 0.017086333 0.050948296 -0.022658654 -0.08965566 -0.074825145 0.022581512 0.053047564 -0.0055523748 -0.01405858 0.025235701 -0.025929583 -0.023058807 -0.17136264 0.052015588 -0.059384584 -0.10794101 -0.0021945804 -0.04643775 0.054299753 0.05392509 -0.06803042 0.09018779 -0.022979636 0.072890736 -0.033470828 -0.012906744 0.029131517 -0.064780764 0.03130736 -0.032274757 -0.00016938084 0.06535096 0.099609815 -0.04285924 -0.004437895 -0.040911917 0.09793562 -0.028408837 -0.05219918 0.054129597 -0.012112733 0.03128172 0.032492083 0.07363165
S -0.100132264 -0.05104155 0.021959078 -0.09371622 0.07132611 0.07055795 0.046018355 -0.047072463 -0.0124696 0.17875999 -0.0068565565 0.07078464 0.024756929 0.033359874 0.099718094 -0.06009062 -0.027255714 -0.01964048 -0.011181027 -0.005027425 0.0663607 0.034688722 -0.04967135 -0.07942017 0.042552814 0.02283451 0.015168179 -0.054618184 -0.089398175 -0.025868759 -0.0043008258 0.0651387 0.12619513 -0.04596764 -0.019043276 -0.058727972 0.052198216 0.12201449 0.06858987 -0.015148573 0.03289775 -0.012841719 -0.01448675 -0.0007142092 -0.037658386 -0.12581024 0.02292088 -0.045142636 -0.0084284935 -0.006410525 -0.040408384 -0.030223165 -0.0056642196 0.02480263 0.057810675 0.019482262 -0.10545385 0.003320776 0.07934317 -0.04468391 -0.101076126 0.0067763636 -0.02116038 -0.09672468 0.024273774 -0.08464904 -0.05011191 0.041344956 -0.009609266 -0.049226213 0.15202802 0.0068003237 0.10857846 0.047778346 0.09933285 0.13573195 0.011966053 -0.055026397 -0.042361893 0.047645546 -0.009730497 0.04267615 0.018276714 -0.04700704 -0.030074168 0.051512353 0.024207233 -0.107067056 -0.07166323 0.019620012 0.020821862 -0.06636986 -0.057043396 0.010754108 0.054288425 -0.010646546 -0.075863265 -0.1304824 -0.021328945 0.026161036 0.09686436 -0.1410966 -0.06692512 -0.018119663 -0.061114326 -0.022139432 0.17851254 -0.04279648 0.10861112 -0.03844512 0.0057798545 0.10554447 0.028351808 -0.112565584 -0.00019355431 -0.07624426 -0.0702403 0.051683594 -5.2043715e-06 0.020551255 -0.000120497134 0.025872339 0.029488236 -0.14138693 -0.0007330727 0.043329123 -0.0289142 0.03595602 -0.032115266 -0.051082708 -0.016057873 0.034064706 0.017919833 -0.01776794 -0.047454964 0.05477592 -0.02918262 0.08305554 0.051674087 0.028523976 0.03458362 -0.037699275 0.07048572 0.030902173 0.029565256 0.012071497 0.025481615 -0.032614622 -0.053856462 0.026469365 0.04569943 0.030603683 -0.00219726 -0.0036003715 -0.0034029665 0.07192551 0.054895684 0.028655943 -0.014812232 0.024559738 -0.05328575 -0.05799206 -0.03403653 0.08444723 0.015607048 -0.09058185 -0.053849116 -0.032422684 -0.0144901285 -0.024681611 0.07441047 0.016227333 0.037077513 0.045726642 -0.042023357 0.1037448 0.0009928365 -0.046464264 0.059500676 0.051880524 0.023335284 -0.032181326 0.06267082 -0.0011594042 -0.052913744 -0.03136311 -0.0033188118 0.017996281 -0.06383149 0.016611537 0.026937634 -0.009209416 0.08253862 0.010236625 0.014189092 0.011670869 -0.043557115 -0.077614285 -0.04040839 0.11661453 0.0012865369 0.014736979 0.011060956 -0.0975486 0.048660226 0.0042089606 -0.019022914 0.011268033 0.037490856 0.058999438 -0.06255376 0.042047806 0.0017614114 -0.09478074 -0.037289515 -0.017365523 0.03128278 0.046977606 0.032199632 -0.04706389 0.014137769 0.03933902 0.051891282 -0.021952763 -0.023576885 -0.173478 -0.13734353 0.011757298 0.06346212 0.014683394 0.108994 0.015042778 -0.019166566 -0.019280555 0.12214274 0.032982666 -0.046155356 -0.051205337 -0.0690632 -0.025318507 0.114379175 0.020009357 -0.013952678 -0.006366554 -0.13018546 0.08148798 -0.03582937 0.05494114 0.052641474 0.06414168 -0.03065341 -0.057569023 0.062280085 0.13848372 0.039808325 -0.026873406 0.0687749 -0.046750378 0.07681726 0.086779475 0.034867633 -0.070697956 -0.06356836 0.03569914 0.017673362 -0.051025186 -0.099991724 -0.051488094 -0.01567322 -0.004434704 0.03935809 0.002696469 0.0055985334 -0.005485133 -0.06953352 0.0030110588 0.037079077 -0.05423835 0.007380401 0.28682426 -0.01834668 0.0720654 -0.053508896 0.0051437505 0.040737137 0.12512526 0.1389644 0.048839275 -0.092979304 -0.058256846 0.0009755774 0.03575338 -0.02578394 -0.0067616915 0.042447902 0.08939486 0.009147429 0.045881826 0.014238657 0.016120926 -0.027992453 -0.032237165 0.00414651 -0.10344187 0.035930086 0.0048812344 0.004987524 -0.04214945 0.13568963 -0.06251344 0.038276017 -0.013414517 0.069988415 -0.0068337074 -0.023788173 0.15827483 -0.080359325 0.006872688 -0.011940919 -0.09988959 -0.16369729 -0.1599707 -0.089442216 0.07918743 0.10987143 -0.0069463626 0.067853145 0.016043112 -0.002095818 0.15377277 0.06213139 -0.09206602 -0.022119915 0.15060468 -0.20321015 0.18729998 0.054958057 0.04066128 0.0044331085 -0.024719201 -0.013863476 -0.051370792 0.017130494 0.0031541872 -0.018496346 0.061662 -0.09749318 0.013689755 0.00023492603 -0.048304588 -0.092220105 -0.0066025476 -0.04069111 0.046519276 0.0056486144 0.0068993606 -0.08386035 -0.05476134 -0.046743233 0.12154765 0.12185035 0.15428786 0.076011166 0.023342615 0.061002478 0.03916713 0.11543095 -0.17734703 0.066651724 -0.11284085 -0.15629956 0.057130586 0.12420724 -0.1384837 -0.0021293506 -0.039111096 -0.07740773 -0.051796116 0.01851729 -0.004566131 -0.15817563 0.11607931 0.13366963 0.040313292 -0.085379295 -0.0095037725 -0.0001511712 -0.08966918 0.049500957 0.027636962 0.072698504 -0.001624741 -0.01588456 0.024670215 -0.034434117 -0.015380615 0.10413324 0.01833244 0.07123154 -0.12321759 -0.030823326 0.10487449 0.042276032 -0.09615352 -0.11081168 -0.0969558 0.026574546 0.05940949 0.095488794 0.043395706 -0.021716662 0.025519166 -0.039800834 0.032238793 -0.10561509 -0.04640882 0.032645922 0.0027147122 0.04632163 0.007903708 -0.06621397 0.022367528 0.0026287504 0.07697427 0.046832103 0.01687739 0.02191259 -0.09612806 0.012585082 -0.084769495 -0.013117454 0.06458628 0.08613713 -0.10957838 -0.11745428 0.049051177 -0.0070351306 -0.07112131 -0.015291936 -0.15832472 0.05633381 -0.030875567 0.14878085 -0.12108703 0.046730667 0.05446921 -0.021552745 0.094056726 0.076852106 0.09133199 0.027913354 0.10627638 0.05827251 0.022184335 0.065164626 -0.004907092 -0.07753619 -0.1146128 0.015255665 0.01567977 0.08784903 0.0045778123 0.0015918954 0.1297085 0.0700513 0.0490051 0.10687385 0.12577125 0.075372696 0.0185672 -0.017508626 -0.045815364 0.059156217 0.03323594 0.03698193 0.0566609 0.112703085 0.009382234 0.05182348 0.016502028 -0.18957658 0.02530026 -0.10386106 -0.09660124 -0.067457534 -0.052848037 -0.034075454 -0.002700097 -0.06175123 0.056522116 -0.15992059 0.09812643 -0.08941119 0.053012338 0.10047795 -0.09903897 -0.0062619383 0.08963986 0.023025306 0.08635846 0.13124217 -0.083001904 -0.016536525 -0.04434104 0.039307993 -0.05638117 -0.08407722 0.056895327 -0.027006507 -0.08246456 0.07241948 0.035191227
A -0.04471904 -0.05415915 0.010376072 0.02490827 -0.01604913 0.039951 -0.00095876213 0.035566464 0.006478852 -0.009429373 0.0007604919 -0.06444318 0.045839902 0.061570853 0.08389119 -0.010631492 0.018978473 -0.036065634 -0.03687045 0.0053738547 -0.029468244 0.05027791 0.016376145 0.029672742 0.066564545 -0.01011959 -0.0032684316 -0.015337486 -0.05198798 0.07589241 0.059871573 -0.08034546 0.029729871 -0.04235468 0.025555406 0.013795125 -0.036595087 0.0481184 0.04990077 -0.0067967447 0.049700145 0.012656758 0.038574006 -0.0031191837 -0.014216413 -0.064722426 0.02746688 0.012888537 -0.023480596 0.03310871 -0.026289413 0.017624587 0.019105244 -0.01615738 0.023100065 0.010799588 -0.02387714 0.028642323 0.020476282 -0.04797855 -0.05708245 0.033797346 -0.031186482 -0.02580177 -0.03198005 0.00010002107 -0.003765695 -0.026688673 0.0005393575 0.062003046 -0.0015375064 0.06296146 0.021540329 0.0005179728 0.02727858 0.020791229 0.00930722 0.033664953 0.0022432122 0.044842735 -0.038618017 -0.014771981 -0.034004834 0.00015414195 0.019335127 0.012011709 0.019835545 -0.05981277 -0.051148295 0.04377971 -0.02858927 0.014388807 0.0026648305 0.07787077 0.006154598 0.003919567 0.009285823 -0.027410194 0.0062513947 -0.026885964 -0.024666293 0.00766791 -0.0013139063 0.011916607 0.051618587 -0.006804903 0.0077488516 0.023752436 -0.031927407 -0.014727728 -0.0052252114 0.004577862 -0.062202875 0.029820021 -0.040635917 0.045649804 -0.009507492 0.0059774946 -0.02900654 -0.03174099 0.03350675 -0.011136342 0.002194084 -0.06115823 -0.035489563 0.0371017 0.005891707 -0.010014306 -0.022398636 -0.073756516 0.016990503 -0.07486613 0.010242928 -0.003529395 0.07491806 -0.0006675309 0.026987804 0.024180619 0.06896364 0.0832462 0.0025934184 -0.04825429 -0.047760203 0.014362484 -0.012845896 0.009234217 -0.03906599 -0.009316517 0.013041383 -0.014476805 -0.013326413 0.043282013 -0.062288515 -0.030201964 -0.0030849536 -0.01163249 0.04374696 0.02382981 -0.031814784 -0.015233662 -0.07553062 0.027495163 -0.043420672 0.013189581 -0.027223732 -0.06966898 -0.03894297 -0.0023501285 -0.09722926 -0.044525873 0.032544088 0.019171594 0.06521825 -0.06675874 0.057836343 -0.03297057 -0.0009859416 -0.057137676 -0.066855475 0.053275906 0.0461125 0.017294664 0.09571794 -0.08332676 -0.003182 0.015501993 -0.04966558 -0.037842803 -0.015739137 -0.04101211 -0.077633336 0.0031949151 0.048721723 -0.071180895 -0.013077325 -0.014762903 0.023193987 -0.03783127 -0.052340634 -0.010821261 -0.041717786 0.026501544 -0.034892604 -0.040490128 0.032014158 0.040291276 0.009815643 0.057279885 0.061866403 0.040953852 -0.03269514 -0.04844166 0.06597675 -0.04587463 -0.0086662695 -0.024993684 0.06157197 -0.0022922987 0.03936417 -0.0485182 0.05825906 0.05331786 0.03896842 0.05409876 -0.104577996 -0.16098 -0.1119449 -0.008384979 0.0474174 0.042181663 0.07678012 0.05173046 -0.076358676 0.011311805 0.15115128 -0.009271344 -0.089520395 -0.04408424 -0.05037164 -0.013735715 0.08144996 0.0770881 -0.011128041 0.047550518 -0.10359795 0.031531006 -0.05759557 0.05039487 0.0007179689 0.020965323 -0.052866224 -0.0030154756 0.0914888 0.05148513 0.010814839 0.017496547 -0.0025088661 -0.033915676 0.041361295 0.06057464 0.040530313 0.018149285 -0.055944413 0.056158036 0.039659236 -0.036268193 -0.046128932 -0.06597893 -0.03549731 -0.016406886 0.08801463 0.0738671 -0.024810947 -0.039876822 -0.014520122 -0.035168868 0.05395801 -0.0032128082 0.06336831 0.1660369 -0.013875853 0.08360585 -0.07497394 0.022445504 0.06118085 0.05898546 0.09167113 0.07605968 0.016704382 -0.01347107 -0.015601085 -0.024766915 0.022731896 -0.017314665 0.06498024 0.04305037 0.009179105 0.048278585 -0.018716987 0.0066302344 -0.057782903 -0.09781626 -0.059821103 -0.09067168 0.06434931 0.035361204 0.056192983 0.054068457 0.051023632 -0.025342101 0.009257717 -0.024740746 0.05189706 -0.043152995 -0.0052133673 0.033112347 0.019057974 0.0060858307 -0.0014504268 -0.014799252 -0.085756525 -0.051055916 -0.019232444 -0.006843038 0.030449396 -0.02437701 0.08917099 0.025844174 -0.006364334 0.011353756 0.038823895 -0.022028446 0.0055414857 0.04378376 -0.085676484 0.07817932 0.011149645 -0.020464372 -0.022081845 0.021547029 0.002596455 -0.03331392 -0.03257349 0.011515046 -0.0040837843 0.05585222 5.911519e-05 -0.020853091 -0.023291776 0.018904516 -0.021574669 -0.0055748546 -0.011497909 0.026899379 -0.03213295 -0.0122003835 -0.026276553 -0.012624583 -0.04485704 -0.008502465 0.060009502 0.0071396204 0.01882119 -0.029050533 0.03039875 0.00030342134 0.04214821 -0.050781645 -0.0071171317 -0.029880745 -0.08446675 0.027911626 0.033893112 -0.09683088 0.007055489 0.026223045 -0.071851745 -0.027073262 0.02325398 -0.026362294 -0.11075434 0.020589614 0.11969219 0.09842311 -0.04708921 0.0072920853 -0.01712711 -0.025934812 0.01941329 0.024753833 -0.0075568296 0.033853002 -0.03698647 0.021620387 -0.040605545 0.024231018 0.030330412 0.029632136 -0.009901023 0.005075962 0.021188512 0.026649246 -0.00810935 -0.0262896 -0.039656878 -0.039947636 -0.015815146 0.042601526 0.048431404 -0.033400968 -0.019266888 0.017712642 -0.02834827 0.04481906 -0.029597593 0.027711334 0.0015355672 -0.007867105 0.044613663 -0.0029094222 -0.06708643 0.021034786 -0.049670946 0.010833845 0.058754545 -0.023588425 0.08421418 -0.110327266 -0.011662591 -0.085327156 0.008106036 0.00925918 0.03563059 0.0040079206 -0.025661292 0.011657717 0.014746489 -0.065927036 -0.04481828 -0.081407 -0.054396436 0.011002129 0.08368959 -0.0746359 0.014983835 0.01129071 0.005631204 0.048189506 0.049263548 0.024374044 0.04896423 0.086035095 0.003283686 0.009239736 0.02437015 0.032061636 -0.06533509 -0.09451574 -0.03661614 -0.004782345 -0.018365955 0.05050736 0.027904043 0.05957078 0.06662664 0.025679545 0.061475217 0.076896824 -0.0025365993 0.049214005 -0.04540873 -0.014925095 0.02795245 0.00011635222 0.042065285 -0.0032968007 0.0040412024 0.010574213 0.0149157215 0.0053995894 -0.079067364 0.0015545085 -0.0505853 -0.03828683 0.016935939 0.007402355 -0.031898703 0.038471967 -0.010169904 0.06463271 -0.035909012 0.06989945 -0.0041595777 0.0030381184 0.01854019 -0.046875298 0.009044694 -0.009920742 -0.008007914 0.02488662 0.005849527 0.000881061 -0.008484407 0.062155973 0.037637044 0.0022390883 0.01276478 0.024181664 -0.03908248 -0.037607912 0.051069517 0.00540729
Y -0.10700598 -0.1789237 -0.045784906 -0.055183627 0.015176093 -0.019035516 -0.074280255 0.041511435 0.00017746468 -0.11991161 -0.010165847 -0.14008074 0.06253004 0.0727292 0.15406737 -0.021498589 0.023086635 -0.11539146 -0.070857204 -0.04261398 -0.06887813 0.005070343 -0.0067268256 0.02954847 0.062855005 -0.0090845255 -0.039462943 0.029863963 -0.04295237 0.06047141 -0.03904322 0.053413123 0.05135216 -0.10080514 0.012225187 0.05903472 -0.08222281 0.036276612 0.05225176 0.008693329 0.071031496 -0.021096889 0.10693915 0.03709599 -0.027889209 -0.0787371 0.051781215 0.018035538 0.03995382 0.0055742213 0.038163103 0.00022268308 0.017911453 -0.03562077 0.072092526 0.0956406 -0.01787547 0.005595427 0.047430124 -0.07461566 -0.07253134 -0.079657614 -0.046053067 -0.020269228 -0.057101514 -0.076217204 -0.009344671 0.09742686 -0.07530912 0.0701856 0.10978785 0.017412147 0.09763181 -0.006768906 0.052203 0.13077573 0.05294456 0.03363734 -0.0010147132 0.06518637 -0.06509074 -0.0005632512 -0.03555717 0.05606532 0.005247382 0.002751881 0.052488826 -0.03709366 -0.08349302 0.104463965 -0.04081516 0.078503996 0.017704114 -0.03615732 0.0014969991 0.009297332 -0.07886523 -0.11243634 0.07356683 -0.033749256 0.03955235 -0.042589482 0.030697767 0.017968431 0.037823603 0.018551558 0.08511797 -0.023792688 0.071810625 -0.060018826 -0.04680871 0.068362474 0.049304668 -0.010297482 -0.020773446 0.025630543 -0.07614188 -0.014965041 -0.050380927 0.085179806 0.053733066 0.010108321 0.018161988 -0.09046159 0.01335794 0.0035497048 0.01878397 -0.061985403 -0.0033069856 -0.041204993 -0.101269 -0.1241152 -0.037081964 -0.033364046 -0.01521598 -0.024729684 -0.009411902 0.090344526 0.02323799 0.09272546 0.005010475 -0.06416441 -0.0025500853 -0.0128536 -0.012789342 0.0522544 -0.036878437 -0.020135256 0.091060676 0.055665795 -0.020409215 0.011645373 -0.013728901 -0.004557423 -0.037567336 -0.0042473553 0.095874205 0.08351724 0.0014670411 -0.01753658 -0.06745755 -0.06552222 -0.07244478 0.004485425 -0.07396802 0.0031231886 0.02323738 -0.03810923 -0.09069771 -0.040059682 0.093410395 0.012657848 0.0315075 -0.033234898 0.018575551 -0.04907472 0.080522634 -0.09550721 -0.04703854 0.07730645 0.037495263 -0.06329839 0.1070069 -0.0056509925 0.0021101774 0.07101578 -0.013627343 0.017605625 -0.024568748 -0.017834526 -0.018005688 0.08137444 0.09036564 -0.06809459 0.05439376 0.04522791 0.027300278 -0.004074069 -0.03275067 -0.010662672 -0.040012717 0.0736852 -0.05308091 -0.121368974 -0.0060068094 0.010122851 0.014240112 0.0031243914 -0.013127314 -0.013635912 -0.04113039 -0.012668902 0.0040066335 0.005217859 -0.043033995 0.01728043 0.11573569 -0.08290309 0.09269044 -0.07065021 0.0046940492 0.0076382603 0.034349713 -0.035128817 -0.10598127 -0.14658868 -0.048636306 -0.030976793 0.05307162 0.03309388 0.06684448 0.034295995 -0.03545881 -0.011950763 0.10329401 -0.05547682 -0.09174023 -0.01954381 -0.017667765 -0.041137848 0.1271508 0.10627135 -0.013209159 0.04260965 -0.0109490715 0.040910847 -0.10993083 0.038921844 -0.057810612 0.035584766 -0.07485418 0.064208396 0.039601624 0.016110785 -0.015134381 -0.0069731097 -0.069438115 -0.06928544 0.032159187 0.06457879 -0.018337805 0.09297829 -0.030253828 0.05439507 0.039098535 -0.060659893 -0.024294961 0.021043364 -0.07100071 -0.02037109 0.072789036 0.11079469 0.06072575 -0.019040996 -0.043143228 0.056458946 0.060891587 -0.07036186 -0.0067246696 -0.014849118 -0.03912941 0.005891678 -0.019301094 0.053215872 0.035477046 0.027404102 0.016619729 0.07885195 0.11063854 0.049743842 -0.13879524 -0.071530744 -0.0055254083 -0.060964312 0.062281523 0.021935906 0.02512563 0.06841613 0.0014025932 0.062183455 -0.028010666 -0.1047213 -0.041132227 -0.04387463 0.042117402 0.007496631 0.034375038 0.09563551 0.078380495 -0.054775596 0.009641024 -0.04651294 0.111009866 -0.01818211 0.008670202 0.06007772 0.07104486 0.096988775 -0.024455516 -0.068585075 -0.18403347 -0.11835409 -0.12998292 -0.07919283 0.088883564 -0.045961402 0.13566183 -0.008802273 -0.049476944 0.0016395872 0.103989795 -0.10278823 -0.0335928 0.08553347 -0.16497396 0.02829101 0.098946154 -0.00243191 -0.0495934 0.04602399 -0.053296555 -0.08548564 0.0013799738 0.015751613 0.016763017 0.10926344 0.010398323 -0.0435128 -0.13110916 -0.013807346 -0.08485825 0.008132407 0.007895777 0.0441497 -0.040475994 -0.024787884 0.034949895 0.021326734 0.00972386 0.028526796 0.20960748 0.05584208 0.10294387 0.027423372 -0.016223682 0.010508975 0.20589238 -0.1237643 0.024834437 -0.067802235 -0.1787027 -0.016044753 0.10993692 -0.2494964 0.09921863 -0.025516935 -0.18989247 -0.15342031 0.07347755 -0.024642564 -0.21834973 0.06645831 0.2664969 0.18318936 -0.14477424 0.091751926 -0.0035803863 -0.02792726 0.02626369 0.08569104 0.016088454 0.078058355 -0.11024973 0.01643592 -0.09657892 0.038471773 0.059357066 0.039536227 -0.04682778 -0.031919356 0.08128803 0.051917832 -0.063876025 -0.16849317 -0.118936434 -0.14586364 -0.064949855 0.026981724 0.0734818 -0.08490473 -0.002608432 0.069362946 -0.07298845 0.07588544 -0.05973236 0.075832255 0.05900259 -0.02502616 0.05972151 0.033576388 -0.11845053 -0.02008172 -0.121688224 -0.00416726 0.07220497 0.007699732 0.18174426 -0.20978126 -0.047261022 -0.13566421 -0.020814957 0.087044105 0.07270038 -0.0011140285 -0.021849662 0.011687344 0.034957692 -0.10594029 -0.09435549 -0.20396802 -0.042987693 -0.031219281 0.15127397 -0.102768876 0.065194756 0.048740517 0.031120166 0.08021781 0.1069602 0.11792197 0.08166893 0.16520284 -0.014008548 0.09376502 0.06293952 0.07862333 -0.05772308 -0.08473771 -0.026212286 0.015155095 -0.0060687396 0.003311168 0.03713876 0.037048325 -0.0069291582 0.08734641 0.03518705 0.105538785 -0.049120337 0.044219095 0.0021823086 0.08892018 0.030184582 0.0120062 -0.024256993 0.045718785 -0.0134341605 -0.008187419 -0.018308291 -0.014459204 -0.01957632 0.010941134 -0.018922593 0.019685911 -0.003686939 0.05807758 -0.016281087 0.034324832 -0.010031281 0.04896894 -0.013034426 0.06489872 0.03670427 -0.052090544 0.043772962 -0.04255647 -0.06054167 -0.047301784 -0.017501537 0.064935505 -0.07255637 0.040458888 -0.04819736 0.08932472 -0.06357089 0.0038572347 0.048684366 -0.02676759 -0.07097583 -0.04637125 0.055957805 -0.05105541
Q 0.09701328 0.073918484 0.02557982 0.14650464 -0.06976799 0.04845106 0.0010225957 0.0874086 0.059037045 -0.13856298 0.038228806 -0.15964752 -0.0223038 0.002360556 -0.13144258 0.048453193 0.037910122 0.02854246 -0.07249572 0.028461467 -0.045694627 0.07403285 0.06486753 0.00716471 0.036322076 -0.008695795 -0.021749403 -0.050498255 -0.013742838 0.045075778 -0.037344173 -0.069280624 -0.015586379 0.010925533 0.042957034 0.06116782 -0.056968607 0.035502605 -0.02351086 0.018161532 -0.015205884 0.014420368 0.026212607 -0.028629461 0.050984148 -0.00853685 0.017055985 0.07098122 -0.0354913 0.016193146 0.006300971 0.053313266 0.00861612 -0.00077287207 0.00061835244 -0.013967119 -0.022431685 -0.0014522518 -0.057730265 -0.024397658 -0.011511092 0.11254152 0.05482632 0.05735421 -0.012656399 0.057984903 0.02470878 -0.06476792 0.022710135 -0.010436806 -0.07653735 0.0013991854 -0.017204769 -0.010302009 -0.0051342053 -0.05775858 0.018499274 -0.03007205 -0.03535012 0.09167593 0.00779265 0.03234123 -0.016790194 0.037216514 0.04590441 0.004715173 -0.02211267 0.0062171924 0.026064243 -0.0016295465 -0.03672769 0.012615112 0.009199503 0.0557592 -0.002676752 -0.0059433905 0.07760897 0.017466003 -0.02781445 -0.024865612 -0.051654886 0.07975978 -0.007032233 0.008909845 0.12708044 0.029764676 -0.06477253 0.01706432 -0.1027779 0.026914574 -0.013918351 -0.06106929 -0.10350223 0.09893712 -0.0625699 0.048546582 0.074495375 0.0040979628 -0.011092595 -0.09511803 0.030101582 -0.0036475682 -0.0010525521 0.047700472 -0.025633108 0.08639178 0.012621267 0.06310623 0.011738252 -0.051732145 0.061240617 -0.11036958 0.072920226 0.05363901 0.08385266 -0.04048187 0.087619565 -0.0731567 0.14733005 0.06478678 -0.010310568 -0.039707392 -0.13658974 0.00056797685 -0.019320883 -0.0174494 -0.08499858 0.102863625 0.07946224 -0.14562668 -0.0709795 0.045379106 -0.099043705 -0.02948269 -0.00966008 -0.090641774 -0.02649014 -0.005964463 -0.050300814 -0.029689046 -0.09185776 0.06567559 -0.025971726 -0.041770745 -0.024291428 -0.08440924 -0.06982939 -0.003780817 -0.137242 -0.09087099 -0.034072038 0.10162131 -0.0074497918 -0.10083156 0.0712839 -0.1084454 0.045445282 -0.0055516614 -0.044092897 0.045256898 0.0030840163 0.072981775 0.1428533 -0.12865086 0.010469592 -0.06659464 -0.08276265 -0.044081002 0.022462897 -0.07792484 -0.1953829 0.06452769 0.01455464 -0.12470259 -0.07281716 -0.035964046 0.06833751 -0.08110156 -0.057027023 -0.057839546 -0.070894636 0.012568017 -0.0013520228 0.01295657 0.010654474 0.072463185 0.009181233 0.07299873 0.09993085 0.015574241 -0.025578689 -0.1175122 0.08066863 -0.13949065 0.030958256 -0.09335917 0.026604002 0.06286485 -0.016937202 -0.08637299 0.115429804 0.13044803 0.069967695 0.1292773 -0.12556183 -0.07597321 -0.13620405 0.007334937 -0.012470184 0.13673589 0.07714475 0.07730119 -0.103271164 0.02460462 0.2514405 0.0122512905 -0.14346015 -0.05361227 -0.048773155 -0.092745826 0.010664819 0.073630445 0.0139660975 0.015715001 -0.16736592 0.042160712 -0.07379063 0.09861569 -0.03108687 0.0048931846 -0.10173103 0.021530429 0.09195538 0.13020249 0.016020013 0.097771056 -0.005334792 -0.039595112 -0.0074194497 0.07285454 0.099091426 0.06319463 -0.07175218 0.01586506 0.06340745 -0.053950254 -0.11860223 -0.122963905 -0.031183014 -0.0022438597 0.15459967 0.02687034 -0.0593209 0.042324606 0.011045862 -0.08776561 0.038195383 0.067431785 0.14500219 0.26157996 0.07620595 0.146395 -0.07980845 -0.027702304 0.08389756 0.11471742 0.16117117 0.1213973 -0.0080811335 -0.037629887 0.0117851375 -0.053487662 0.04298149 0.022010602 0.06877168 0.021317149 -0.005361047 0.07817282 -0.086991146 -0.0021164166 -0.048394397 -0.12325259 -0.124296926 -0.10956711 0.12234073 0.116143696 0.11688911 0.047020346 0.0623572 -0.056223623 -0.045381285 0.032518025 0.03421641 0.008755581 0.034473266 0.06625997 -0.0012508386 -0.0129575245 0.08410088 -0.052011743 -0.010283069 -0.033570945 0.029105404 -0.016028572 0.08084933 0.020562138 0.10370622 0.06927619 0.026490685 0.011958995 0.0485266 0.01658299 0.010910904 -0.005049642 -0.053504128 0.106284656 0.019614898 0.027613958 -0.0029377856 0.051803853 -0.02818449 -0.03179759 -0.025149189 0.002289164 -0.027070094 0.026532069 -0.010856451 0.0038313211 -0.013164088 0.036784533 0.019174177 -0.021720901 0.008018655 -0.022277154 -0.0014681584 -0.044385158 -0.06907542 -0.037693277 -0.010865995 -0.009982805 0.0021980715 -0.031225543 0.0026179065 -0.08098908 0.040317625 -0.03262663 -0.09709129 -0.024488017 -0.049870916 0.058586992 0.019102814 0.047672708 -0.076752484 0.041958887 -0.009792061 0.08380577 -0.011453294 0.009871566 0.044389803 -0.025572047 -0.025167411 -0.010095147 0.023744285 0.057121605 -0.009664429 0.00670121 -0.051268972 -0.0260444 -0.018668381 -0.032810222 -0.083862975 0.009928792 -0.013105312 0.017709443 -0.019803554 0.064569436 0.024099624 -0.019517977 0.018831393 0.028106071 -0.06265628 0.025248474 -0.027682725 0.04188706 0.030291708 -0.013009692 0.009019879 0.07688945 0.0038408244 -0.0048641926 -0.016674018 -0.050292596 -0.022882294 0.023475224 0.045702524 -0.003836622 -0.0028487877 0.02525575 0.012360848 -0.018529523 -0.009124391 0.022558484 -0.0462832 -0.021252278 0.02303861 -0.009888761 0.02653534 -0.021806143 0.028516298 -0.023665667 -0.0167704 -0.05183555 0.03449278 0.05412082 0.026932146 -0.0057468433 -0.00048138673 0.013693352 -0.053987168 -0.020925777 -0.073631294 0.06074411 0.04082889 0.05194278 -0.0154952435 -0.048219886 -9.855835e-05 0.013945898 -0.036597334 -0.12309209 0.016808396 -0.014742742 -0.041803557 -0.04014381 -0.036114994 -0.010598312 -0.02251331 -0.026545653 -0.049602773 -0.004762737 -0.08414682 0.06910704 0.015238728 0.04203691 0.017847918 -0.040789053 -0.06974717 0.0113347 -0.0010130309 0.031264767 -0.0048427684 0.001277408 -0.050549876 -0.030058386 0.022666944 -0.03305355 0.005001002 0.044437457 -0.014711679 -0.032453652 0.0074174223 0.010646612 -0.008346759 -0.0065988507 0.018892357 0.0038463178 0.008202046 0.027497422 0.064257145 0.04030936 -0.032222144 0.022822808 -0.03783577 -0.021231664 0.03712703 -0.035603333 0.015165257 0.021283478 -0.0328257 0.045821756 -0.04269269 0.03888873 0.018610174 0.09386312 0.046914585 0.027031131 0.025371784 0.030440174 0.022559656 -0.016821437 -0.039596077 -0.00038750248
T 0.019855883 -0.0024785402 -0.006680862 0.019839339 0.025736922 0.03893635 -0.01997681 0.063457966 0.031425387 -0.017366642 0.02977756 -0.06398727 -0.045384884 0.017905034 0.0028191835 -0.031541202 -0.0011728957 -0.03873293 -0.015645482 0.013558014 0.017605003 0.048650045 -0.011728075 -0.051679358 0.027280996 0.010305824 -0.0304188 -0.01880611 -0.05259606 -0.033413038 -0.066918686 0.08866125 0.10031965 -0.0043640025 0.02213743 0.09091382 -0.0248481 -0.00061708986 0.055807192 0.050001413 -0.0017726007 -0.00592432 0.026354345 0.022466602 -0.041843884 -0.053611066 0.018190535 -0.01604701 0.016236808 -0.00026386627 0.062443715 0.02518701 -0.008565016 0.03076937 0.091374315 0.06676141 -0.054962367 0.004621509 0.044415217 -0.07102512 -0.027385792 0.0070514516 -0.0057214033 -0.036339033 -0.0062678526 -0.09748938 -0.04000018 0.05693718 0.0029886581 -0.040314473 0.107953556 -0.034051135 0.10820284 0.023487197 0.044582438 0.10542224 -0.0042390493 -0.06120988 -0.04620968 0.058788005 -0.03611745 0.077336594 -0.010186764 0.016768811 -0.03345556 0.026006693 0.00853997 -0.03911924 -0.0429382 0.05269827 -0.012866284 -0.014061153 -0.0069284244 -0.0468904 0.0026091703 -0.010249383 -0.10989112 -0.11639281 -0.010080204 -0.044520352 0.06955815 -0.10521129 -0.02801045 0.009668456 -0.019019412 0.03938357 0.10960989 -0.019133478 0.05200626 -0.01796831 -0.026996851 0.06562479 0.025464203 -0.026266469 -0.022274155 -0.06600236 -0.061043855 0.037657652 0.008236021 0.013322633 -0.014540157 0.0040775533 -0.003329714 -0.09455185 0.020241326 0.03267227 0.018348517 0.015872473 0.001999708 -0.048392434 -0.016472736 -0.019307844 -0.01525207 -0.006117993 -0.080747746 0.05049845 0.010687047 0.028414749 0.037570782 0.03222705 0.0005784009 -0.06021011 0.017061919 -0.011587069 0.011344454 0.012627799 -0.07598815 0.0060977438 0.008364913 -0.01937511 -0.0015420817 0.05803096 0.014119459 -0.023907704 0.002372629 0.029023351 0.0312689 0.01997126 -0.017257623 -0.031413432 -0.020058746 -0.046727583 -0.014546546 0.01842075 -0.045619376 -0.067538306 -0.016189426 -0.053477958 -0.058955003 -0.0731727 0.036985867 0.04117927 -0.008739996 0.0370663 -0.039121516 0.014737798 0.035913844 -0.024090173 0.019291988 0.0572507 0.00845249 -0.054056525 0.07313839 -0.010678426 -0.041010387 0.011862026 -0.05366707 0.021649642 -0.048336383 -0.021222064 -0.039918255 0.046941005 0.08357087 -0.037635148 -0.007861678 -0.016291294 0.011894194 -0.08990739 -0.013653483 0.03382004 -0.027776599 0.02777205 0.021897795 -0.07322619 0.013441386 0.03617574 -0.04564008 0.05082493 0.09004726 0.001018208 -0.050163917 0.0058337487 -0.0007468395 -0.079606615 -0.019554574 -0.050107706 0.03564907 0.044052724 0.040975217 -0.05906244 0.027534027 0.031553928 0.056567546 0.0061233114 -0.09661098 -0.16536744 -0.13499017 0.025873814 0.05853224 0.10579007 0.1015971 0.055820446 -0.031293366 0.010215182 0.1827127 0.045979876 -0.09260129 -0.04373858 -0.050639544 -0.08543168 0.10763199 0.07994521 -0.0038583751 -0.014522832 -0.12527417 0.07884429 -0.07692844 0.09734169 -0.0002468251 0.05819884 -0.08571322 -0.008372938 0.05353627 0.12659827 0.013851 0.020137804 0.018196203 -0.08850824 0.04169999 0.07127813 0.020771578 -0.00833178 -0.060326915 0.028292889 0.044198364 -0.04879767 -0.12826626 -0.046938203 -0.024349188 0.01105876 0.09149886 0.02045138 0.023902912 0.013972399 -0.04530078 0.0061340053 0.035594523 -0.053334896 -0.0047020735 0.14912994 -0.0143528 0.051821373 -0.019944025 -0.008327868 0.020896826 0.109123945 0.10003745 0.09004397 -0.037467446 -0.0075806663 -0.02856075 -0.030656535 -0.023003442 -0.037990253 0.046282277 0.06466831 0.005710438 0.042105563 -0.009835499 0.0398715 -0.008475817 -0.046378177 -0.046776142 -0.08721359 0.088151835 0.022101872 0.0081073865 0.013541636 0.0946617 -0.05783941 0.019315397 0.010010934 0.12326268 -0.0022033176 -0.035758074 0.123928964 -0.02629805 0.027027339 0.04530077 -0.1108147 -0.17869838 -0.1854923 -0.12066857 0.031735208 0.12203734 -0.018792903 0.096169375 0.0026976888 -0.017097104 0.07911961 0.1012219 -0.09809004 -0.04517441 0.09842104 -0.20514248 0.14018625 0.067017786 0.053546023 0.026273461 0.022645714 -0.04247774 -0.02865962 0.018671589 -0.004809941 -0.0031846673 0.05246002 -0.08250795 0.01964042 -0.024415638 -0.040647134 -0.080258556 0.021738311 -0.037519567 0.018500179 0.047858793 -0.018126167 -0.044109028 -0.0010386899 0.004076574 0.08180257 0.1368497 0.105723076 0.07314921 -0.011154386 0.044180736 0.025032928 0.08587037 -0.17119896 0.052649662 -0.06155866 -0.106246166 0.056070134 0.121933304 -0.12958466 0.05144162 -0.011913835 -0.0968589 -0.06672986 0.096818775 -0.023983473 -0.18068035 0.08498595 0.13739331 0.06684817 -0.11960558 0.010123492 -0.013430526 -0.07332143 0.02810001 0.062082 0.014865042 0.001997178 -0.055704962 0.029883394 -0.04179155 0.010067209 0.11548821 -0.0019398307 0.07935307 -0.11318429 -0.018723676 0.08823417 -0.036109876 -0.112264834 -0.13908134 -0.14040227 -0.037415024 0.075103246 0.08989537 0.053636603 -0.02123418 0.0052439333 -0.024433019 0.04076976 -0.07452084 0.023392327 0.064559095 -0.009419798 0.055548236 -0.0021428685 -0.04581726 0.02273211 -0.07611023 0.027538007 0.045065396 -0.008799254 0.082984336 -0.14218481 0.014586611 -0.11706209 -0.017998256 0.042237993 0.07399876 -0.029596597 -0.09322676 0.000834847 -0.05240926 -0.031346984 -0.03741808 -0.14068976 0.016047267 0.007640572 0.090570435 -0.03738221 0.042907868 0.016532233 0.025891816 0.017039197 0.07113853 0.039288383 0.060029004 0.076929815 -0.00075375615 0.06619593 0.041541502 -0.0040191156 -0.041437108 -0.06941061 -0.041593656 -0.00036764005 -0.0006351342 0.024488704 0.03074974 0.08965002 0.0037878805 0.03581885 -0.018392442 0.08248932 -0.04135393 -0.011476093 0.06458948 0.06683858 -0.014387918 0.017299674 0.015862795 0.0717011 0.07325873 -0.0069106263 0.027983528 -0.029812483 -0.09373347 0.016630223 -0.055148162 -0.0056216693 -0.04269624 0.014204887 -0.0010548044 -0.011166456 -0.029087104 0.047186084 -0.06499932 0.044155043 -0.070121676 -0.022645194 0.0859518 -0.07608046 -0.021633698 0.051886696 -0.017080028 0.055488553 -0.021969168 -0.038656082 -0.058545325 0.034093503 -0.0066692163 -0.006374308 -0.042601984 0.0077974214 -0.039208125 -0.058423318 0.007876618 -0.03806369
G -0.10127866 -0.09118969 0.01975468 -0.087270856 0.050778862 0.061415564 0.022526119 -0.027749477 0.011066827 0.13794819 -0.02086501 0.020416185 0.0374765 0.048305582 0.10625321 -0.03767276 -0.029366186 -0.055296272 -0.030291017 -0.01386147 0.07430809 0.031560656 -0.04504069 -0.08893634 -0.005171826 0.012552397 -0.023715941 -0.046826202 -0.10760899 -0.033573676 -0.026524186 0.12015238 0.14033219 -0.058805715 -0.034160316 -0.0573286 0.04867544 0.14003286 0.08564032 -0.03902697 0.07748926 0.002878582 -0.017572345 -0.006426421 -0.053568136 -0.14251639 0.04240802 -0.03508635 -0.00091880624 -0.0064800815 -0.029870367 -0.029619653 0.000519751 0.006646494 0.093013264 0.036043204 -0.09965925 0.013362917 0.08338583 -0.0700914 -0.117297515 0.016264573 -0.042497404 -0.10139941 0.016056694 -0.07747362 -0.048203304 0.033266753 0.0035806363 0.009373174 0.14551419 0.039020024 0.11370136 0.03766726 0.106019296 0.1129058 0.007151293 -0.02028159 -0.017899068 0.044602375 -0.04328691 0.039278444 0.019334221 -0.035062563 -0.028852915 0.05976334 0.03362039 -0.11885904 -0.09223446 0.039931227 0.018237002 -0.056257434 -0.038530704 0.025549514 0.060173146 -0.0007645265 -0.07320237 -0.1343352 -0.0015674909 0.0069219377 0.042065095 -0.12571679 -0.06520251 -0.0036543917 -0.048740353 -0.029439565 0.16014777 -0.026103403 0.07033995 -0.039204806 -0.025037043 0.097710714 -0.0017402946 -0.07533776 -0.030545322 -0.03826474 -0.079992995 0.06103936 0.0005181075 0.029395368 -0.0016702951 0.021410074 0.027526576 -0.15119556 -0.011692736 0.030909648 -0.021567352 0.016571643 -0.05332473 -0.08548494 -0.008273369 0.007147973 0.026710702 -0.02999195 -0.029467352 0.051015373 0.0050323936 0.09054973 0.059018593 0.06940399 0.0049958527 -0.079178214 0.048552223 0.014931693 0.0024665468 0.038281433 -0.016575338 -0.04803788 -0.058297697 0.03396757 0.031310078 0.03897776 -0.035495687 -0.028787784 0.0114471 0.03940221 0.0780664 0.049114846 -0.033973552 0.019329991 -0.0772923 -0.06946792 -0.071398854 0.11088522 -0.013167247 -0.09714443 -0.06361915 -0.034723196 -0.029787133 -0.045978762 0.08825388 0.012527544 0.069687754 0.019283278 -0.03283893 0.108274564 0.004419618 -0.07965554 0.025933366 0.072982974 0.03305758 -0.051016305 0.07515086 -0.008339863 -0.05360277 -0.0045304135 -0.010374169 0.007904302 -0.066118546 -0.0023683254 0.03791298 -0.0053792316 0.12823127 -0.0073849065 0.017945087 0.0053333463 -0.037320316 -0.07534901 -0.049262185 0.107043415 -0.006068583 0.018053949 -0.018511064 -0.1220665 0.05885943 0.006948249 -0.028241316 0.032606866 0.05830732 0.08848597 -0.069392554 0.045650188 0.021884307 -0.08354259 -0.04820787 -0.025246257 0.04910587 0.036167342 0.08145683 -0.05998053 0.021530127 0.060838915 0.05097895 -0.0091994945 -0.0592057 -0.22058482 -0.15947923 0.015658207 0.07580963 0.013681503 0.13094622 0.009886982 -0.0377804 -0.0042929365 0.13949291 0.027323022 -0.06415661 -0.043145064 -0.1025832 -0.042402845 0.17197512 0.052462146 -0.009960271 0.01716433 -0.14125817 0.08740074 -0.06829008 0.08839976 0.056658145 0.07634984 -0.074604645 -0.03392368 0.056219097 0.12104535 0.033422865 -0.010256997 0.054770537 -0.078496054 0.08882981 0.11178827 0.029382119 -0.058442324 -0.078986056 0.06214117 0.039627563 -0.055903114 -0.09967739 -0.058550026 -0.048497982 -0.017737715 0.067780815 0.04496423 -0.00072552403 -0.02668633 -0.07924326 0.0015151263 0.07052305 -0.055585932 0.028348524 0.31884256 -0.03428174 0.10948654 -0.08538521 0.021126699 0.044732794 0.15636086 0.18680649 0.1093628 -0.06308294 -0.06584068 -0.023731604 0.022555165 -0.0017797615 -0.02327527 0.05523842 0.11278427 0.025295934 0.079698645 -0.0068841283 0.040381197 -0.05277099 -0.05959868 -0.040859282 -0.14876172 0.07050659 0.029468013 0.032944422 -0.016466558 0.14865968 -0.06779828 0.028653102 -0.0374315 0.09471332 -0.02262562 -0.0128857605 0.15029757 -0.062045313 0.03035393 -0.0075489446 -0.1320716 -0.20770349 -0.19811098 -0.119605765 0.07264287 0.1258899 -0.02528745 0.08267361 0.027851699 -0.012293915 0.12715703 0.08475343 -0.11787722 -0.02915749 0.17381234 -0.23725078 0.17676407 0.044431124 0.016261023 -0.034905 -0.01506853 -0.017473876 -0.053639144 -0.0023105808 0.022441262 -0.024749836 0.055096574 -0.08372229 0.019293271 -0.016768204 -0.051000822 -0.08834353 0.014122971 -0.042027954 0.07254372 -0.012502036 0.0008820044 -0.0775478 -0.043661088 -0.07076705 0.08782698 0.10853058 0.15136163 0.06633547 -0.00042095274 0.08638115 0.052396387 0.10785855 -0.1555984 0.0692011 -0.10359506 -0.1702794 0.04600251 0.11850097 -0.13127474 0.016825784 -0.03794873 -0.08214212 -0.02387542 0.028417861 -0.012043625 -0.19274345 0.08653577 0.12968941 0.05472316 -0.09654705 -0.038013313 0.007337696 -0.097952366 0.081150934 0.055009283 0.06482359 -0.017093059 -0.0024313405 0.0546004 -0.050844535 -0.027302328 0.10930974 -0.0015952684 0.08357839 -0.13281567 -0.018161746 0.09174288 0.020514695 -0.06571127 -0.090358116 -0.08760192 0.008694167 0.06738333 0.075673655 0.06387744 0.00024180944 0.027792694 -0.071762286 0.019960258 -0.1156795 -0.019157745 0.029235523 -0.027923798 0.059167538 0.040540412 -0.04657795 0.02732086 -0.007469646 0.1274184 0.057551086 0.01195715 -0.03919379 -0.08600524 0.052060843 -0.06650157 -0.012692025 0.06767745 0.061354816 -0.03693914 -0.14496082 0.032015532 -0.05840135 -0.074610375 -0.01585025 -0.12224082 0.026599227 -0.046094485 0.11396923 -0.12844954 0.06783299 0.04863177 0.01979971 0.036624912 0.08415959 0.06400403 -0.0072824913 0.063885614 0.05303345 0.01182695 0.0769678 0.0012018784 -0.04923425 -0.08789522 -0.0030570657 0.015491379 0.063305 0.020203482 0.017775731 0.12181107 0.015478522 0.09854232 0.053451408 0.12232154 -0.004205206 -0.009853636 0.01116132 0.03854775 0.08612717 0.011854429 0.03829558 0.07135326 0.11344332 -0.027908929 0.084003955 0.00063344813 -0.12128814 -0.0069204425 -0.08513383 -0.02665083 -0.05262747 0.014917078 -0.07289149 -0.027502667 -0.03793089 0.04832988 -0.12290941 0.07018662 -0.07400141 0.040926777 0.09609224 -0.109291255 -0.02860947 0.08169025 0.012289593 0.041899487 0.015479419 -0.07742712 -0.07202349 0.04093866 -0.018229164 -0.03453965 -0.056703977 0.010891393 -0.076504186 -0.1201004 0.06889495 -0.044588577
